/**
  ******************************************************************************
  * @file    weights/fc.cc
  * @author  Pierre-Emmanuel Novac <penovac@unice.fr>, LEAT, CNRS, Université Côte d'Azur, France
  * @version 1.0.0
  * @date    24 march 2020
  * @brief   Template generating plain C code for the implementation of Convolutional Neural Networks on MCU
  */

#define INPUT_SAMPLES 256
#define FC_UNITS 32


const int16_t dense_bias[FC_UNITS] = {-16, 14, 37, 11, 41, 21, -26, -24, -10, 12, 13, 28, 2, -49, 8, -44, 5, -27, -50, -15, -38, 7, 46, -19, -11, -33, 18, -13, 43, -30, -46, -31}
;

const int16_t dense_kernel[FC_UNITS][INPUT_SAMPLES] = {{-101, -63, -86, 23, 56, -23, 16, 36, -54, -12, 15, 33, 88, 92, 19, 21, -103, 37, -14, -129, -42, -41, 89, 0, -40, -66, 37, -94, 47, 63, 55, 24, 23, 93, -109, -66, 83, -14, -79, 26, 36, -74, 4, -99, 17, 18, -15, -37, 94, 191, 153, 128, 105, 98, -14, 68, -37, 51, 11, 54, -66, -28, 7, 81, -71, -210, -76, -36, 28, 39, 103, 102, -38, 46, 47, 44, 25, -14, -94, -40, -3, -45, -66, 36, -93, 81, -52, -75, 31, 30, -34, -81, -45, 6, 1, 38, 6, 71, -31, -139, 29, 12, -10, -31, 69, 108, 98, 103, 49, -23, -72, 11, -16, 101, 96, 133, -20, 104, -37, -53, -95, 33, -63, 66, -200, -72, -60, -208, -38, -70, 4, 16, -35, -79, -45, -21, 0, 5, -1, -73, -11, 36, -69, 26, -46, 6, -82, -158, 75, -55, -53, -24, 44, 6, -3, -86, -107, -88, -54, -141, -48, -24, -39, 38, 170, 39, 47, 127, 13, 93, 4, 95, 45, -77, 141, 2, 2, 10, -37, 15, -69, -43, -2, 23, 31, 127, 201, 86, 53, -20, -3, -55, 29, 4, 120, -14, -16, 4, 99, -81, 32, -3, -72, -72, -3, 1, -32, -19, 9, -64, -154, 44, -87, -86, -28, -75, 97, 52, 82, 5, -52, 21, 71, -23, 6, 2, -1, -23, 70, 29, 90, -44, 61, -15, 48, 64, -88, -14, 1, -40, 66, -71, 44, 26, 16, -89, 27, 45, 24, 104, -17, 109, 47, 29, 2, -79}
, {50, 66, -55, 1, 9, -11, 58, 98, 116, -127, 27, -15, -118, -47, 5, -62, -55, 58, 94, 82, 68, 44, 107, 84, 125, -18, 92, 138, 34, 34, 53, 26, -23, -47, 31, 59, -81, -4, -11, -61, 83, 62, 84, 78, 103, 11, 82, -6, 94, -33, -10, -60, -57, 13, -27, -140, 25, -88, -28, 5, 23, 28, 19, 75, 17, -69, -34, -25, -143, 6, -26, -188, -1, 36, 72, 94, -181, -72, -114, -75, 84, -11, -16, 6, -39, 49, 38, -2, 2, 36, -17, 45, -49, 41, 17, 28, 75, -68, -11, -104, 109, 78, 100, 202, 75, -11, -3, 20, -16, -38, -90, -36, -109, 6, 9, -33, 23, -18, -121, -37, 70, 88, 20, 30, 202, 91, 38, 202, 31, -54, 24, -102, 3, 35, 0, 14, 43, -21, -89, 52, 34, 6, 15, -37, -46, 60, 0, 49, 14, 2, -10, -82, -27, -5, 113, 5, -62, 108, 19, 125, -14, -15, -54, -82, -97, -38, 94, -104, 6, 39, -30, -36, 143, -11, 49, 51, -7, -67, 10, -29, 50, 85, 87, 65, 48, 29, 26, 33, 68, 25, 40, -18, -31, -49, -44, -87, 0, -37, -30, -165, -50, -31, 45, 2, 5, 85, -27, -42, -47, 103, -76, 63, -46, -61, 8, 50, 59, 30, 54, -74, 1, -65, 16, 49, -14, 14, -57, -40, 13, -101, 5, -68, 11, 22, 19, 24, -11, 1, -87, -48, -61, -53, -119, -12, 42, -105, 12, -54, 23, 78, 80, -4, -118, -98, -49, -22}
, {12, 66, -76, 10, -19, 30, -33, -41, 167, 115, 26, 100, -89, -15, -56, 21, 74, 82, 64, 27, 67, 77, -6, 14, -30, -34, 53, 80, 91, 21, 76, 60, 2, -39, 133, 49, -17, 21, -1, 14, -3, 25, 44, 51, 18, -34, -28, 88, -45, -22, -6, -23, -58, 5, 0, -46, -30, -62, 44, -95, 122, 37, -50, -26, 55, -9, -166, 16, -174, -45, -12, -138, -114, -54, 0, -69, -141, 55, -73, 24, 18, 105, -34, 109, -79, 18, -59, 57, 30, -61, 42, 6, -44, -16, 103, -63, 1, 33, -62, 8, 52, 72, 25, -26, -67, 18, -80, 22, -43, 4, -16, -34, -123, -154, -95, -17, 21, 42, 9, -89, -17, 79, -52, 18, 7, 28, -55, 3, -14, -16, -57, -63, 7, 52, 37, 10, 42, 54, -66, -37, 21, 54, -11, -4, 90, 84, 45, 77, -33, -68, -44, -9, 0, -43, -15, -48, 95, 62, 48, 8, -8, -1, 27, -48, 38, 58, 77, -45, 17, -4, -63, -65, -186, -91, -47, -27, -58, 44, 63, -34, 58, 58, -46, -13, -19, 45, 69, 50, 1, -37, 49, -52, 25, 43, 11, -56, -24, -35, 80, -52, 74, 79, -14, 91, -31, 11, -28, 61, -60, -16, -82, -14, -69, 21, 4, 88, -9, -19, -43, -6, 0, 0, -44, 10, -23, -91, -76, -31, 2, -19, 6, -65, 48, 18, 6, 8, 36, -22, 75, 10, 103, 28, 28, 100, 22, 33, 44, 197, 53, 106, -41, -89, -1, 73, -21, 64}
, {-78, 21, 72, -60, -23, -22, -8, -98, 66, 125, 0, 8, 113, 51, 75, 168, -14, 54, -71, -57, -28, -15, -49, -18, -65, -83, -109, -122, 103, 59, -3, -34, 0, 18, 2, 27, -6, -16, 11, -71, -118, -42, -89, -50, -117, 86, -98, -38, -69, 38, -16, 31, -24, 90, -48, 73, 76, 18, 75, 27, -28, 81, 55, 59, -44, -4, -95, -155, -2, 73, 16, -31, -28, 4, 22, -48, 86, 15, 25, 51, -56, -37, -66, 0, -3, -56, -9, -95, 7, -104, -51, -142, 54, -18, -16, -4, -90, 7, -7, 103, 17, -91, -7, -160, -51, 47, 10, -75, 67, -41, 100, 74, 35, -61, -90, -35, -100, -11, 115, -22, 6, 14, 81, -88, -174, -108, -115, -153, -24, 99, 47, 116, 58, 105, -67, -99, 3, -32, 30, -69, -37, 55, 46, 35, 136, 66, 28, -56, -14, 30, -15, -30, 73, -75, -143, -198, 45, 44, -60, 13, 21, 0, 5, 121, 97, 138, -70, 98, -112, -24, 71, -76, -141, -187, 29, -18, -6, 30, 57, -6, 3, -186, 0, 62, -123, -50, 10, -100, -90, -20, 12, -78, 122, -31, 25, 123, 63, 30, 14, 51, 87, 26, -18, 39, -30, -23, -71, 26, -122, -60, 40, 70, -4, 89, 62, -60, -69, -57, 74, 2, -92, -28, -40, -18, -47, -111, -60, 21, 115, 9, -29, 43, -125, -39, 56, -59, 89, 40, 110, 58, 183, -66, 125, 78, 42, 70, 92, 176, -7, 18, -5, 0, 76, 180, 1, 181}
, {140, 73, 80, -95, 0, 14, -32, -83, 38, -23, -21, 82, 25, 52, -69, -93, 60, 26, 32, 2, 26, 0, 16, -15, 11, 80, 76, 64, 5, 23, 25, 78, -8, -75, 32, -88, -52, 29, -36, -67, 30, 2, 148, 34, 32, 25, -7, 50, -99, -157, -70, -112, -15, -24, -101, -44, 36, -28, -19, -60, -45, -54, -9, -31, 139, 114, -31, -87, 78, -74, -61, 32, -60, -1, -152, -26, -36, -82, 102, 42, -95, -48, -33, -80, -12, 31, -26, 27, -87, -113, 3, 81, 92, 20, 9, 14, -30, -103, 25, 56, -97, -20, 5, 41, -2, -53, -18, -91, -19, 79, -30, 66, -65, -39, -67, -82, -183, -53, -37, -30, 27, 70, -9, -4, 141, 83, 128, 45, -60, 76, 38, -96, -18, 99, -78, 67, 114, -39, 130, 37, -49, 1, 41, -12, 19, 40, -20, 112, -85, 78, -18, 33, 107, 59, 23, 84, 20, -5, 30, 16, -2, 68, 57, -42, -248, -51, -45, -119, -4, -106, -46, -3, -78, -71, -95, -26, 71, -16, 118, 16, 93, -22, 3, -3, -53, -90, -161, -143, -42, -3, -10, 25, -36, -92, -43, -87, -58, 22, 20, 80, -79, -7, 77, 53, 28, -72, 40, -56, 7, -18, 62, -53, 27, 80, 20, 214, -130, -49, -86, 34, -46, -35, -2, 0, 131, 31, -21, -61, -27, -24, 59, 41, -79, 80, -92, -100, 87, 46, 96, -7, -20, 50, 20, 74, 94, 35, -17, 42, 5, 4, -37, -44, -69, -69, 66, 54}
, {-80, -142, 37, 133, -2, -5, -12, -11, -44, -72, -29, -11, 79, -3, 54, 0, 35, 120, -37, -31, -43, 93, 79, 22, -27, 15, 52, 1, -20, 7, 76, 43, -24, 141, -53, 28, 35, -4, -99, -13, -14, -1, 36, 25, -27, 14, 67, -43, 36, 71, -8, 36, 45, 60, 27, -49, 26, 57, -2, 76, 83, 45, -85, 0, -99, -56, -25, -75, 0, 89, -4, -57, 52, 62, 27, 116, -6, 22, -22, -27, 162, 41, 133, 56, -49, 41, -66, 39, -40, 16, 7, -82, 0, -86, -9, 81, 85, -7, -26, 0, 41, -52, 26, -36, -7, 62, -20, -32, 29, -28, -29, 51, -68, -50, -29, -45, -59, -7, 24, 156, -10, -18, -6, 9, -76, -58, -13, -66, -72, 14, -14, -31, 76, 21, -14, 17, -62, -59, -13, 33, 67, 49, 0, 53, -100, -43, 7, -33, 85, -51, 10, -35, -116, -54, -18, -89, -1, 14, 68, -58, -35, -94, -55, 9, 75, 41, 99, 28, 62, 16, 150, 7, -3, 6, -139, 74, 15, 33, -105, -101, -18, 70, -3, -18, 45, 112, -11, 78, -44, 31, -47, -3, 131, -30, 83, 102, -23, 10, 3, -68, -78, -45, -49, -63, -103, -21, -31, -4, -3, -2, -72, -39, -47, -63, -61, -71, 93, 85, 45, 44, -104, -34, -60, 27, -95, -5, -42, 42, 81, 45, 44, 28, -13, 20, -33, -28, 8, 32, -28, -50, 0, 47, 16, -2, 82, 65, -29, 0, 37, -28, 78, 4, -94, -106, -35, -115}
, {-46, -26, 15, -49, 61, 25, -56, 11, -80, 138, -42, -55, 64, 105, 107, 111, -32, -70, -108, -92, -140, -132, 9, -28, -136, -58, -28, -158, 30, 44, 42, 45, -14, 111, 0, -113, 42, -25, 43, 47, -53, -26, -136, -107, 57, 12, -50, -13, 117, 149, 16, 193, 107, -20, -40, 123, 65, -22, 65, 25, 49, 62, -7, 16, -102, -78, -25, -70, 79, 27, 49, 136, -56, 58, 7, -11, 48, 56, -16, 28, -81, -74, -76, 70, -92, -19, 32, -44, -81, 70, -35, -79, 5, -49, -56, 1, -59, -5, 10, 8, 11, -84, -142, -166, 85, 44, 48, 24, 66, -56, 56, -19, 98, 104, 8, 41, -81, 98, 92, 70, -88, 15, 14, 21, -231, -96, -91, -230, 68, 15, 42, 79, 27, -63, -32, 7, -20, -31, 67, -69, -23, -19, -51, -52, 50, -48, -59, -60, 10, -8, -24, -35, -42, -50, 12, -119, -101, -139, -48, -93, -5, -45, -30, -13, 158, 51, -7, 57, -22, 36, 104, -10, -44, -18, 75, 20, 73, -35, 2, -102, -85, -102, -30, -5, 13, 3, 93, 15, -14, 17, 0, -24, 37, 80, 78, 87, 65, 74, 64, 76, 80, 73, -39, 36, -92, -40, -40, 23, -13, -43, -6, 16, 16, -110, -65, -58, -6, -28, 43, -23, -53, 17, 8, 7, -75, 39, 9, -11, 22, 53, 124, 24, -3, -1, 42, -82, -55, 34, 53, 0, 38, -52, 144, -34, -27, 40, 36, 55, -60, -7, -79, 4, 61, 127, 37, 36}
, {109, 92, -16, 13, -112, -97, -57, 49, 12, -8, 24, -22, 7, 14, 9, -14, -45, -19, -54, 37, 9, 35, -72, -102, 63, -3, -27, -3, -73, -80, -67, -113, -93, -86, 55, -67, -9, -64, -34, 0, 1, -15, 121, 99, -14, -20, -23, -116, -103, -125, -42, -153, -32, 8, 15, 61, -36, -20, -45, -40, -50, -4, 56, -85, 12, 111, 136, 228, 126, 21, -29, 23, -31, 4, -106, 33, -32, 44, 31, 65, -21, -68, -41, -73, 55, -76, 23, -20, -35, -26, -26, 95, 70, -96, 33, -4, 38, 13, 62, 145, -165, -125, 35, 29, -9, -42, -16, -37, -93, 80, -35, -42, -7, 60, -79, -137, 73, -45, -17, 56, 110, -35, -85, -96, 156, -20, 32, 35, 131, 17, 132, 35, -64, 4, -60, 37, 61, -3, -28, -3, -50, 29, 14, -6, 92, -27, -61, 36, 15, 15, 77, 13, -82, 127, 138, 61, 7, -76, 144, -28, 10, 65, -6, 28, -7, -45, -26, 28, -33, 0, 27, 11, 141, 119, -31, -14, -77, 102, 26, 45, 0, 27, 104, 5, 5, -15, -133, -138, -44, 55, -42, 70, -14, 33, 18, 73, 69, 62, -76, 56, -4, 41, 92, 84, 95, -57, 19, -34, 212, 39, 99, -79, 67, 4, 3, 127, -56, -41, -65, 13, 160, 73, 45, 90, 66, 38, -51, 90, -66, 55, -23, 77, -54, -56, -31, -9, -92, -35, -4, -39, -168, -15, 15, -112, 11, 28, 17, -95, -30, -99, 12, -55, 7, -78, 4, 73}
, {127, -35, 70, 22, 96, 12, -25, 60, -184, 22, -5, -7, 46, 11, 72, -11, -53, -23, -32, 1, -66, -109, -18, -31, -99, -74, -24, -76, -37, -54, -6, 60, 49, 24, -142, -190, -1, 126, 29, 72, -113, -111, -13, 2, 120, 111, 12, -25, 74, 123, 60, 70, 144, 8, 10, 57, 26, 81, 85, 80, 2, -80, -156, 21, -230, -70, -1, -237, 160, 3, -48, 119, 110, 39, 14, 83, 98, 47, 64, 69, 30, -91, 6, -82, -76, -99, 19, -40, 40, 91, 61, -37, 24, -13, -142, -141, 16, -34, 9, -39, 35, 57, -120, -168, 81, 138, 86, 154, -55, -48, -29, -31, 32, 101, 33, 34, -152, 92, 85, 19, 0, 73, 84, -16, -62, -46, -74, -85, -33, 110, 39, 51, -17, -4, -61, 33, 56, 70, 9, 69, 0, -15, 34, 1, -32, 80, -23, -143, -72, 21, 0, 53, 126, 14, 22, 14, -126, -46, -26, -153, -4, 45, 47, 46, -55, -31, -102, -13, -58, 64, -15, 54, 12, 28, -27, -55, -32, 9, -13, -2, -58, 3, -68, -1, -73, -7, -7, 22, 75, -12, 3, 70, -39, 57, 34, 66, -47, 10, 117, 113, 42, 60, -34, -57, 41, -63, 3, -17, -35, -59, -36, 26, 96, -32, -59, -65, -32, -108, 18, 74, 81, 52, 80, -11, 31, 16, 89, 18, 57, 40, 82, 39, 8, -53, 4, -71, 84, -7, -14, 15, 7, 100, 39, 136, 71, 78, 1, -38, -84, -21, -73, 34, 99, 136, -12, -16}
, {-71, -152, 29, -5, 6, -49, -24, -51, -60, 136, 0, -15, 0, 62, 102, 105, 15, -17, 24, -129, 26, 23, 71, 61, -100, -5, -24, -80, 66, -37, 16, 21, -64, 137, 63, 12, 8, -48, -51, -10, -72, -68, -138, -67, -57, 0, -5, -67, 74, 51, 97, 101, 111, 73, -50, 86, -16, -21, -24, 100, -27, 29, 63, -71, 53, -43, -140, -53, -96, -35, -20, -41, -5, 7, 48, 20, 20, 38, -104, -79, 67, 96, 77, 62, -90, 77, 41, -34, 29, 84, -63, -17, -14, -23, -70, 23, 109, 28, 20, -90, 55, -44, 55, -10, 30, 48, -46, 81, 9, -20, 35, 30, 10, 6, 43, 43, -81, 76, 72, 74, -111, -52, -62, 45, -67, -63, -79, -148, -12, 16, 39, -11, 34, -107, 84, -32, 23, -98, -91, -56, 100, 45, -6, 40, 0, -52, 26, -147, 48, -2, -1, 20, -56, -134, -61, 0, 21, 12, -85, -79, -71, 20, 2, 14, 134, 6, 136, 62, 70, 49, 149, 63, -9, 0, 9, -35, 34, -25, -24, -47, 44, 4, -53, 89, 45, -13, 124, 70, -7, 78, -35, -20, 120, 29, 19, 84, -74, 50, 68, -91, 19, -33, -95, 6, -91, 85, -70, -59, -50, -11, -71, 59, -49, -86, -35, -75, 3, -18, 133, 17, -52, -69, 21, 26, -128, -67, -23, -35, -48, -44, 67, -44, -35, 52, 71, 23, -21, -126, -92, 20, 99, -48, 104, -3, -7, -64, 67, 43, 31, 41, 87, 45, -9, 46, -97, -45}
, {-10, -73, -6, 24, 105, 101, 9, 84, 19, -41, -50, 29, -79, 9, -50, -45, -48, 12, 251, 26, 17, -20, 15, 85, -14, 80, -57, -36, 40, 20, -13, 121, 36, 26, -56, 123, -50, -20, -10, 63, -17, 57, 40, -90, 180, 71, 99, 77, 156, 0, 90, 78, 103, 18, 36, -47, 120, -61, -17, -11, -86, -109, -30, -26, -126, -231, -7, -60, -153, -30, -23, -98, 102, 31, 69, 29, -6, 0, -136, -163, 66, -55, 11, 80, -107, 27, 30, -98, 175, 91, 162, 133, -21, -44, -80, 18, 125, -54, -104, -146, 143, 189, 23, -7, 14, 102, 139, 93, -46, 13, -34, -53, -60, 25, 125, 170, -28, 116, 56, 2, 41, 89, 72, 34, 18, -49, -54, -67, -12, -88, -86, 11, -79, -48, 37, 52, 46, 31, 18, 81, 17, -61, -126, -28, -77, -44, -22, 4, -100, -33, 23, 12, 159, 71, -12, 69, -78, -21, -41, -118, -30, -53, -14, 86, 11, -100, -60, -67, -21, 40, -25, -40, 87, -51, 19, -65, 50, -37, -8, -74, -60, 45, -39, -13, -61, 22, 49, 44, 57, -21, 85, -33, -64, 39, -42, -143, -128, 53, 2, -29, 70, -19, -95, -56, 53, -68, -3, 27, -75, 5, 19, 24, -61, -4, -108, -103, 94, 57, 13, -33, -58, 19, -53, -82, 2, -15, 67, -23, 130, 9, 45, 5, 48, 0, 48, 157, 19, 3, 44, 7, 139, 68, -34, 23, -5, -31, 93, 64, -78, 13, 79, 87, 56, 63, 34, 8}
, {-130, -112, 24, -99, -175, -42, 3, -53, 120, 213, 22, 62, 120, 55, 21, 186, -30, 89, -89, -122, -55, -19, 15, 2, -74, -133, -82, -73, -8, -35, 27, -9, 28, 157, 85, 24, 15, 37, 61, -114, -146, -15, -78, -82, -73, -13, -51, -29, 19, 73, -34, 173, 76, 55, -69, 88, -50, 12, 10, 39, 55, 32, -6, -13, -1, 35, -41, -73, -48, 69, -30, -31, -36, -91, 41, -76, -2, 56, -9, 67, 99, 27, 44, 139, 7, -19, 47, -61, 23, -8, -77, -161, 91, 63, -34, 58, -129, -14, 5, 67, 8, -66, -58, -85, -97, -20, -8, -48, 57, -49, 10, 97, -87, 1, -102, -64, -8, 31, 101, 28, -63, 48, -58, -4, -97, -96, -162, -128, -68, -20, 10, 160, 54, -10, -56, -55, -87, -53, -47, -88, 98, 60, 11, -34, 113, 5, -99, -63, 47, -92, -17, -4, -3, -94, -173, -210, 74, 44, 78, 43, 87, -59, 50, 41, 81, 88, 67, 89, 45, -72, 72, 87, -236, -51, 8, -36, -6, 24, 27, 5, 39, -53, -31, 42, 22, -90, 4, 29, -45, 47, -41, -124, 148, 65, -77, 187, 15, -42, 16, 69, 42, 99, 25, 98, 6, 55, -2, -39, -128, -78, -27, -94, -18, -78, -66, -85, 30, -50, 101, -63, -59, -17, 58, 12, -50, -93, -46, -79, -52, 46, -2, -22, -57, -76, -64, -76, -46, -11, -35, 51, 20, 41, 50, 42, 46, 81, 31, 51, 10, 13, 35, 68, -1, 112, 34, 131}
, {31, 8, 11, -104, 83, 37, -19, -27, -24, 49, -28, 56, -15, -39, -30, -32, 60, -4, 130, 52, -137, -190, -30, -56, -148, 22, -39, -108, 19, -22, -25, 5, 30, -8, -133, -92, 35, 33, 24, 69, -62, -70, -4, 15, 45, 5, 55, 39, -42, 66, 26, 65, 16, 10, -87, 63, 125, -42, 134, 84, 21, -21, -21, -3, -148, 12, -42, -234, 112, -28, -21, 77, 78, -2, -21, -65, 2, 31, 84, 109, -114, -120, 37, -107, -80, 25, -89, -90, 36, -7, 50, -44, 95, -33, -73, -54, -92, -105, -52, -3, -69, 93, -108, -80, 64, 104, 75, 43, 9, -52, 58, -38, 63, 23, 118, 128, -167, 116, 61, -63, -15, 32, 72, -24, -71, 17, -42, -46, 94, 100, -49, 46, -23, -1, -77, -42, 74, 105, 82, 15, -42, -41, -31, -47, -21, 20, -32, -35, -79, -7, 47, -14, 62, 87, -5, -38, -25, -52, -64, -62, 91, 106, 91, 113, -153, -5, -183, -39, -48, 12, -5, 44, -42, -88, 16, -46, 95, -3, 20, -3, -45, 31, 8, -28, -108, -81, 53, 22, 91, 9, 90, -19, 31, -53, 52, 48, 50, 60, -19, 43, -23, 15, -81, -22, 39, -100, -7, 25, -6, -112, -25, 108, 123, 0, -40, 52, -63, -87, 32, 55, 79, 42, -38, 44, -15, 32, -25, -1, 144, 33, 125, 75, 36, -63, -41, 3, 63, 21, 39, 135, 39, 125, 40, 108, 86, 174, -38, 122, -23, -78, -97, 0, 183, 146, 75, 101}
, {44, 85, 10, 23, 44, -27, 43, 88, -94, -191, 0, -108, 39, 3, -29, -3, -31, 11, 52, 60, -20, -16, 14, -17, 8, -31, -41, -72, -30, -38, -12, -26, 0, -24, -45, -188, 39, -18, -20, 32, 50, -71, -16, -14, 86, -25, 53, 82, 70, 35, 35, -12, 50, 18, 63, -95, 35, 18, -41, 31, -80, -70, -61, -14, -86, 2, 174, 53, 53, -41, 8, 134, 99, 148, 33, 91, 41, -25, 59, 34, -64, 16, -15, -154, -12, -41, -16, 26, -7, 79, -74, 94, -77, 33, -84, 66, 27, 65, 37, -54, 37, 30, 28, 32, 73, 3, -24, 48, -37, 5, 49, -22, 119, 33, 63, 42, 5, -106, -67, 76, 9, -79, 53, 1, 47, 68, 3, 18, 36, -3, 58, -15, -82, -49, 23, 39, -23, 13, -24, -9, -129, 37, 45, -26, -99, 18, 14, 59, -49, 56, 37, 11, 6, 75, 66, 144, -64, -39, 31, -104, -19, 59, -45, 15, -90, -32, 1, 26, -73, 106, 0, -52, 199, 132, -43, 41, 32, -6, -3, -37, -35, 98, 29, -150, -53, -5, -46, -30, 76, 47, -83, 25, -39, 72, -31, -43, 19, -7, -89, 61, -136, -19, 46, -106, 13, 65, -29, -15, 135, 63, 131, 89, 72, 23, -33, -1, -18, 26, -116, -26, 93, 102, -9, 112, 116, 76, 44, 18, -25, -24, -11, 122, 60, 40, 55, 26, -57, 32, -26, 0, -83, 51, -129, -18, -56, -84, -83, -193, -108, 7, 12, -93, -7, -54, 65, -64}
, {25, 10, 96, -43, -27, -18, -38, -50, -48, 190, -26, -7, 35, 107, 99, 130, -49, 44, -5, -111, -39, -91, -81, -134, -117, -94, 1, -160, 11, -13, 21, -28, 58, 35, 14, -19, 30, 30, -8, -8, -17, -6, -55, -36, -89, 76, -62, 29, -47, 34, -91, 94, -14, 12, -62, 64, -3, -6, -1, -66, 0, 84, 19, -41, 41, 65, -61, -128, 66, -30, -29, 56, -49, -5, -57, -1, 42, 46, 11, 127, -67, -108, -106, -74, -19, -58, -56, -108, 2, -3, 2, -109, 55, -109, -27, -78, -37, -14, 53, 147, -104, -23, -25, -70, 15, 6, 54, 29, 42, -28, 105, -3, -7, -25, 11, -12, -54, 46, 5, -37, 0, 77, 6, -66, -137, -125, -97, -207, 22, 7, 7, 117, -4, -23, -22, 35, -11, 6, 23, 31, -35, 61, 19, -9, 176, 105, 39, -46, 9, 98, 25, 44, 12, -10, -54, -78, 72, -66, -23, -38, 92, -9, 78, 4, 2, 80, -79, 75, -42, -72, 27, 50, -49, -53, 18, -48, 101, 91, 20, 14, -29, -57, -48, -56, -59, -61, -44, -85, -18, 90, -50, -60, 30, -40, -54, 161, 124, 90, 59, 30, 129, -15, 68, 125, 53, 0, 13, 34, -38, -118, -6, 22, 49, 87, 7, -45, -14, -103, -54, 4, 82, -23, 71, -61, -44, -52, -30, -28, -15, -4, 123, 12, 5, -21, 19, -131, 99, 17, 28, 37, 122, 87, 48, 131, -38, 54, 24, 139, -16, -52, 5, -37, 128, 173, 77, 173}
, {2, 58, 49, -53, 27, 40, -87, -40, -164, -86, -98, -109, 33, 88, 36, 93, 50, -44, -43, 3, -108, -100, -141, 5, -77, 13, -23, -51, -49, -74, 10, -35, -82, 13, -127, -116, 4, 110, -24, 90, -98, -62, -64, -94, -24, 77, -2, -30, -55, 26, -45, 61, 30, -21, -11, 109, 67, 28, 20, 64, -1, 14, -39, -89, -159, 25, 52, 19, 259, 85, 39, 117, 29, 29, -83, -41, 191, 6, 126, 51, -34, -73, -26, -111, 58, -34, -102, -49, -103, -61, -6, -31, 83, -80, -101, -46, 9, -68, 46, 55, -51, -8, -129, -175, 43, 25, 23, 5, 28, 43, -7, 49, 142, 133, 99, 38, -74, -10, 68, 4, 63, -94, 49, 5, -156, -81, -140, -122, -3, 91, 23, 39, -31, 26, -26, -32, 1, -40, 55, -16, -8, 67, 75, -58, 71, 6, -1, -49, -63, 111, 54, 5, 6, 11, -88, -73, -131, 0, -97, -103, 8, 13, 65, 2, 42, 101, -95, 81, 47, 7, -20, 20, 10, 26, 26, 39, 44, 36, 54, -86, -85, -58, -20, -48, -37, -33, -64, -23, -44, 12, 44, -37, 92, -33, 0, 95, 50, 44, 8, 96, -99, -3, -42, 75, -17, -20, -30, -33, 12, -129, -34, 35, 76, -29, -42, 27, 25, -45, 43, 67, 96, -37, 62, -43, 4, 68, 47, 26, -45, 24, 66, 91, 11, 40, 40, -22, -3, 2, 28, -28, -76, -15, 26, 16, 54, 130, -55, -52, -16, -124, -94, 29, -24, -23, -9, -61}
, {2, -46, 49, -1, 82, -36, 22, 67, -100, -118, 34, 11, -48, -10, 44, -25, 19, -24, 51, -36, 49, 89, 12, 102, 54, 86, 11, -11, -26, -22, 9, -70, 37, 28, -23, -91, -30, -34, -70, -18, -26, 85, 37, 64, 32, -2, 47, -20, 74, 94, 97, 17, -22, 58, -13, -94, -2, -43, -39, 90, -21, -75, -114, 43, -113, -90, -56, -83, 1, 40, 14, -39, 79, 18, 88, 107, -75, 0, -12, -100, 57, 131, 23, 41, 58, 3, -65, -41, 27, 58, 9, 103, -68, -17, -83, 78, 40, -6, -21, -44, 113, 58, -24, -6, 10, 1, 0, 29, 43, -51, -42, -80, -44, -13, 78, 94, -28, -5, -38, 33, 21, 28, 29, 34, 55, 82, 21, -31, 4, -24, -2, 7, 0, -46, 36, 40, -50, -2, -96, 91, -38, -51, 11, 46, -192, -38, -78, -8, -1, -55, -17, -37, -80, -11, 74, 68, -50, 52, -90, 52, -19, 12, 75, -97, 52, -57, 40, -19, 22, 63, 42, 114, 117, 76, -25, 2, -32, -64, -87, -5, 0, 63, -54, 72, 146, 79, 5, 26, 59, -21, 43, -23, -73, 130, 5, -21, -120, -27, 9, -86, -56, -33, -51, -108, -62, 53, -25, 41, 45, -42, -86, 14, -90, -34, -85, -38, 28, 9, 51, 69, 7, -25, 24, 86, 5, 91, 54, 47, -40, 44, 43, 43, -25, 59, -32, 68, -41, -3, -24, -100, -5, 30, 44, -11, -34, -75, -67, -62, 44, 77, 87, 85, 31, -34, -74, -87}
, {-102, -30, 4, 120, 118, 27, 63, 28, -78, -25, -61, -21, 101, -39, 96, 93, -10, -44, -3, 22, -44, 0, -11, -45, -115, -36, -34, -172, 47, -8, -22, 30, -61, 37, -46, -38, -23, -14, -72, 95, -2, -4, -18, -27, 122, -50, 31, 88, 132, 120, 160, 24, 120, 48, 0, 32, 43, -43, 20, 3, -52, 45, 0, 28, -225, -173, -32, -131, -103, 44, 103, -1, 46, -23, 147, 20, 48, 29, -86, -115, -25, 7, -44, 52, -110, -41, -22, -33, 104, 57, 21, 31, 26, -25, -16, 19, 88, 3, -100, -97, 96, 2, -46, -112, 24, 101, 63, 100, 22, 34, -7, -3, 128, 24, 91, 25, 47, 20, -29, 37, -73, 33, -38, 10, -187, -12, -47, -128, -39, 3, 29, 118, 34, -57, -53, 27, -16, 38, -29, 33, -61, -39, -101, 71, -40, 2, -15, -45, -52, -52, -81, -81, 50, 27, -77, 65, -51, -44, -111, -52, 16, -12, 33, 0, 152, 30, 18, -12, 1, -34, 10, -11, 165, -12, 103, 114, -42, 0, 31, -79, 2, 46, -76, -49, 7, 82, 98, 148, 1, 70, 76, 50, 88, 37, -9, -38, 17, -53, 36, 35, -15, -42, -98, -92, -38, 43, 16, -26, -44, 8, -15, 113, 9, -98, -91, -181, 163, 36, 75, -29, -32, 42, 1, 37, -31, 63, 85, -42, -3, 68, -8, -8, 45, -53, -41, 33, 13, -65, -91, 10, 32, 13, 80, 98, -98, -103, 2, 40, -81, 93, -4, 100, 95, 118, -9, -10}
, {-83, -14, -109, 99, -16, -78, 18, -64, -77, -66, -55, -115, 81, 67, -50, 62, 4, -10, -181, 2, 29, -67, -20, 31, 28, -91, 51, -11, -82, -82, -67, -120, -63, 30, -24, -94, 80, 24, 14, -20, -61, 0, -54, 54, -14, -39, 61, -111, 55, 137, 123, -20, 35, -11, 74, 3, -10, 0, 27, 60, 53, 62, 64, 11, -94, 142, 167, 216, 198, -28, -3, 99, 67, -2, 3, 75, 0, 45, 55, -60, -64, 39, -35, -44, 10, 61, -6, -55, -67, 5, -74, 44, -21, -26, 8, 50, -9, 49, -12, 39, -73, -74, 1, -98, -59, -42, -91, -44, -32, -67, -66, -33, 76, 115, -5, 0, 92, -9, -51, 90, 45, -107, -5, -35, -57, -31, -62, -55, 106, -11, 88, -78, 29, -9, -56, 57, -18, 40, -33, 7, 47, -23, -25, 15, -77, -145, -49, 58, 116, -32, -22, 120, -191, 76, 82, 12, -54, -66, 48, -41, -97, -68, 45, -74, 66, 24, 109, 104, 74, 134, 35, -10, 148, 89, 0, 155, -14, 80, -22, -45, -27, -15, 46, -31, -26, 32, -83, -27, 14, 62, -74, 31, 86, -16, 70, -2, 37, 56, -71, -35, -42, -104, 37, -5, 5, 78, -44, 54, 128, 52, 58, 20, 105, -31, -32, -82, -5, 99, -68, -29, 17, 74, 73, 104, -28, 51, -18, 69, -49, 25, -98, 100, 51, -41, 63, 16, -36, -20, 4, -112, -154, 0, -132, -88, 35, -17, -65, -215, 32, -62, 73, 14, -6, -200, -14, -94}
, {19, -3, -23, -10, -40, -17, -62, 21, -161, 153, -12, -101, 80, 55, 98, -31, 46, -52, -1, -113, -122, -103, -44, 3, -164, -32, -120, -204, 5, -15, 69, 48, 69, 183, -143, -74, 95, 83, 18, 16, -191, -40, -104, -66, 76, 69, -51, -26, 72, 133, 50, 158, 180, 81, 25, 154, 75, 15, 112, -17, -13, -32, -6, 72, -210, -100, 32, -107, 78, 37, 110, 101, -33, 76, -38, 18, 171, 34, 53, 39, -61, -38, 9, -1, -49, 21, -7, -68, -51, 68, 16, 58, 16, -90, -82, -54, -56, 55, 0, 75, 73, -106, -155, -106, 97, 63, 15, 53, -49, -29, -23, -49, 36, 64, 14, -12, -120, 87, 117, -29, -9, -12, 74, 15, -169, -61, -80, -176, 18, 42, 42, 165, 75, -54, -41, -28, -17, -26, 116, -8, 9, -47, -4, -70, 32, -30, -68, -76, -44, 22, -33, 61, 69, 88, 3, -94, -89, 29, -84, -44, -30, -15, -12, -14, -7, 148, -72, 42, 30, -41, 108, 15, -81, -33, -28, -39, -26, 1, 40, 11, -65, 25, 29, -35, 10, 0, 21, -63, -41, 31, -54, -14, 57, -29, 78, 144, 103, 26, -17, 67, -20, 62, -82, -33, -75, 41, 58, -44, 42, -125, 39, 142, 45, -40, 18, -68, 56, -95, 57, -30, 53, 95, 144, -55, -81, 30, -4, 7, 1, 135, 47, 112, 14, 19, 18, -16, 0, 30, 9, 129, 98, -32, 172, 29, 29, 106, -42, -25, -24, -82, -103, 21, 155, 21, 2, 58}
, {76, 96, -14, 0, 51, 72, -78, 71, -158, -148, -77, -126, -45, -30, 0, -19, 82, -29, 53, 7, -44, -204, -153, -113, -129, -35, -122, -97, 20, -88, 18, -13, -6, 57, -114, -177, 94, -13, 31, 131, -144, -113, -49, 10, 12, -18, 115, 98, -45, -37, 100, 118, 0, 92, -42, 81, 75, 105, 73, 3, 26, -118, -105, -19, -176, 101, 33, -54, 100, -29, -60, 143, 49, 101, -23, 70, 35, 49, 51, 35, -154, -75, -47, -204, -28, -80, -17, -28, -52, -83, -17, -9, 49, -69, -20, -130, 23, -27, 5, 11, -81, 53, -19, -78, -21, -22, 125, -9, 46, 80, -43, 36, 109, 35, 98, 108, -180, -40, 36, 47, 69, 49, -13, -6, -124, -33, 22, -112, 27, 12, 89, 127, -23, 21, -124, 44, 94, 44, 25, 86, -124, -71, 1, -46, 8, -17, -26, -41, -113, 52, 55, 44, 107, 113, 67, 85, -78, -115, -46, -82, 60, 13, 99, 4, -142, -48, -111, -2, -96, 47, -60, -66, 26, -76, 19, -23, 8, 104, -35, 35, -117, 6, -10, -86, -39, 23, 11, -26, -12, 83, -3, 82, -11, -12, -31, -5, 22, -15, 37, 56, -49, -57, 0, -22, 12, -110, 78, 11, 45, -18, 111, 65, 187, 51, -21, 17, -63, -82, 14, -6, 18, -3, 19, 51, 43, 19, 67, 75, -19, 16, 3, 161, -25, 25, 39, -81, 61, 44, 72, 95, -53, 12, 93, -45, -39, 150, -47, 43, -10, -78, -76, -93, 24, -6, 98, -2}
, {-130, -73, 19, 57, -3, 12, 27, 30, 22, 88, 48, 21, 54, 71, -18, 82, -91, 40, -56, 6, 52, 111, 108, 138, -51, 3, -1, -31, 26, 18, 26, 12, -88, 85, 81, 47, 20, -7, -81, -5, -81, 17, -30, -4, -71, 81, -67, 29, 55, 63, 94, 101, 54, 90, 0, 11, 4, -52, -12, 49, 64, 41, 74, 1, -61, -144, -167, -15, -138, 85, 16, -96, -29, -29, 41, 32, -93, -14, -40, -52, 202, 12, 69, 191, -118, 44, 18, 19, 48, -8, 3, -79, -61, -8, 42, -45, 88, 64, 1, -52, 120, 39, 91, 80, -3, 73, 34, 57, -41, -43, -3, -64, -26, 36, -97, 50, -28, 8, 15, 2, -39, 92, 45, 87, -58, 21, -69, -17, -23, 3, -12, 17, -14, -19, 90, -93, 19, -11, -2, 7, 9, 64, -72, 29, 12, -94, -66, -104, 102, -53, 16, -2, 39, -59, -64, -69, -15, -45, -8, -11, 57, -60, -50, 24, 59, -13, 32, 134, 41, -4, 83, 48, -67, -62, 77, 86, -33, -45, -109, -70, 65, -73, -3, 108, 36, -22, 92, 50, -40, 38, -6, 10, 81, 71, 22, -46, -89, -9, 37, -91, 54, -23, -36, 22, -91, 89, 23, 38, -51, -80, -125, -29, -153, -146, -122, -58, 52, 5, 35, -34, -100, -2, -72, -40, -47, -12, -43, -45, 38, 2, -23, -31, -28, -44, 57, 130, -68, -60, -90, -34, 106, 3, -70, 9, 27, -105, -29, 20, 14, 2, 37, 41, 76, 50, -121, -80}
, {-58, -27, 15, -25, 33, 32, 15, -39, 190, 76, 100, 132, -95, 18, 33, -52, 19, 58, 61, 37, 40, 25, 68, 31, 62, 51, 12, 0, 18, 84, 76, 73, 8, 14, 157, 104, -26, -79, -70, -13, -3, 17, -18, 43, 6, -21, -101, -31, 28, -12, -101, 18, -103, 64, -123, -101, -85, -91, 26, -48, 70, 5, 14, 83, 189, -68, -207, -90, -127, -13, -93, -91, -57, -44, -70, 0, -125, 57, -47, 52, 79, -6, -45, 129, -92, 54, 125, 0, 35, 27, -12, -48, -27, 16, 118, 21, -37, -88, 62, -38, 51, 58, 23, 56, -51, 55, -9, -22, 37, -82, -37, 4, -113, -74, -33, 10, -18, 127, 3, -67, -30, 37, -76, -20, -8, 21, 65, 49, -63, -45, -108, -32, 17, 59, 59, 6, 46, 67, -8, 21, 63, 19, -95, -30, 42, 55, 66, -2, -22, -98, 8, -101, 30, -79, -19, -117, 145, 80, -36, 114, 79, 6, 0, 47, -36, -40, 118, -3, 10, -65, 2, 48, -137, -119, -44, -33, -58, -60, 9, 40, 122, 16, -80, 53, 7, -52, 39, 22, 4, 8, -31, -39, 39, -37, 5, -57, 64, 0, 67, -16, 59, 19, 26, 39, 71, 35, -38, -30, -54, 82, -20, 46, -113, 19, 59, 24, 30, -11, 22, -29, -72, -77, -116, 0, -97, 27, -3, -2, 131, -96, -75, -150, 18, -14, 0, 37, -12, 20, -27, -46, 42, 51, -34, 41, 4, -22, 116, 155, 1, 97, 40, -20, -25, 45, -31, 122}
, {158, 63, 7, 77, 95, 117, 22, 103, 3, -197, -83, -18, -139, -8, -100, -127, 63, 41, 75, 172, 94, 39, 21, -105, 0, 145, 60, -16, -30, 48, -91, 115, 85, -153, -120, -35, -91, -7, 12, 58, 6, -24, 113, -48, 169, 5, 114, 108, 71, -56, 63, -54, -47, 13, 48, -83, 85, -20, 9, -45, -37, -80, -35, 31, -151, -70, 144, 6, 3, -64, -30, -38, 134, 63, 68, 84, -38, -37, 69, -152, -60, -20, 33, -135, -2, -24, -40, -93, 51, 140, 23, 174, -36, -29, -79, 17, 112, 34, -138, 8, 75, 101, 56, 75, 123, 52, 127, 163, 30, 24, -27, -34, 5, 83, 175, 87, 45, -130, -81, -98, -4, 3, 33, 8, 92, 96, 0, 178, 28, -41, -47, -137, -134, 34, 59, 61, 66, 92, 12, 116, -93, -53, -18, 44, -177, 34, -3, 76, -79, 36, 16, -49, 82, 111, 51, 116, -119, -61, -10, -92, 45, -14, 98, 48, -136, -155, -143, -198, -43, -26, -137, -18, 153, 64, 37, -22, -14, -36, 93, 0, -67, 22, -6, -35, -62, 20, -29, -7, 107, 28, -47, 55, -121, -3, 23, -168, -109, -37, 3, -102, -158, -74, -50, -105, 32, -4, 103, 1, 65, 71, 61, 123, 60, 17, 42, 68, -62, 19, 12, 111, -44, 10, -34, -36, 126, 157, 8, 0, 114, -35, -53, -9, 103, 41, 56, 22, 16, 91, -45, 8, 24, 27, -122, -30, 4, -45, -85, -127, 36, -56, -1, 45, 56, -71, -30, -37}
, {38, 94, -19, -93, -14, -62, -59, -68, -68, 47, 46, -56, 32, -58, -64, 41, 81, 14, -63, -58, -73, -142, -26, -149, 48, 12, 21, -70, -70, -78, 16, 29, 37, 8, -33, -28, -12, 44, 100, 58, -4, -15, 79, 83, -8, -39, -8, -32, -10, -83, -49, -23, 40, 33, -29, 0, 31, 15, 13, 25, -1, -36, 47, 11, -11, 173, 20, -12, 71, 38, -33, 45, -49, 19, -21, -108, 45, 49, 57, 165, -97, -77, -105, -50, 76, -10, 43, 45, -1, 13, -56, 43, -5, 10, 15, -112, -51, 20, 108, 77, -22, -64, 19, -109, 7, -18, -4, -93, -80, -39, 72, 24, 55, -16, -11, -11, -96, -4, -3, 34, 14, 13, -14, -95, -66, -41, 50, -28, 89, 0, 51, 51, 8, 78, -68, -59, -34, 70, 99, -59, -28, -26, 28, -77, 109, 59, -19, 4, -133, 70, 8, 86, -14, 78, -47, -76, 16, -107, -26, -28, -19, 61, 13, 103, -96, -55, -55, -29, -23, -54, -23, -72, -57, -86, 7, -8, 7, -24, 71, -13, -60, -91, 11, -9, -124, -63, 10, -75, -68, -24, -85, 30, -23, 32, 26, 27, 15, -19, -50, 102, -12, -13, 27, 64, 0, -11, 62, 57, 68, -46, 125, 20, 84, 89, 58, 92, -132, -21, -10, 15, 69, 67, 24, -24, 70, 39, -62, 22, -15, 106, 8, 16, 36, -26, -30, -133, 22, 55, 51, 19, -49, 96, 35, -52, 57, 127, -35, 56, -74, -111, -24, -24, -32, 50, 118, 109}
, {-113, -43, -95, 72, -124, -106, -54, 4, 96, 114, -65, -57, 6, 81, 43, 18, -91, -25, -131, -8, -63, 75, 19, -16, 26, -11, 27, 1, 30, -61, -7, -31, -25, 56, 4, 51, 75, -14, -9, 47, 9, -81, -43, -20, -93, -13, -21, -101, -10, -45, -75, -94, 0, -53, 40, 0, 3, -22, -76, -43, 47, -12, 6, -46, 125, 181, 94, 241, 111, 44, 106, 104, 12, -58, 30, 7, 45, -43, 44, -23, 68, 9, 25, 38, 41, 67, 29, 64, -101, -19, -79, -93, 38, 49, -11, 127, -6, -32, 87, 66, -91, -268, 99, -95, -118, -110, -67, -1, 23, 43, 28, 57, -25, 52, -94, -29, 54, -8, -10, 52, 27, -131, 18, -66, 3, 88, 55, -18, 75, -76, 20, -38, -35, 2, -38, 66, -31, 29, -93, -82, 97, -40, -22, 52, -71, -31, 5, 1, 130, 41, 44, 6, -128, -90, -19, -119, 89, -12, 108, -40, -74, 16, 1, -61, 121, 28, 48, 85, 65, 2, 69, -7, 127, 145, 37, 65, -116, -23, -105, -2, 36, -112, 90, -121, 52, -31, -39, 52, -75, -45, -7, 17, 49, 14, 62, 32, 107, 6, -93, 96, 6, 50, 63, -16, -50, 113, -41, -29, 113, -65, 30, -133, 78, 17, -54, 36, 31, 84, -54, -61, 59, -22, 92, 31, -30, -60, -20, 10, -88, -71, -12, 29, -29, 23, -31, -63, -38, 42, -1, -95, -121, -94, -84, -21, 86, 33, 10, -79, 26, -83, -4, -7, -102, -52, 98, -75}
, {156, 157, 74, 4, 12, 54, 0, 10, 74, -59, 31, -3, -145, 7, -86, -89, -1, 3, 36, 56, -12, -6, 12, -5, 37, 102, -8, 30, -63, 7, -19, 4, 62, -198, 51, -87, -27, 9, -24, 41, -13, 42, 70, 107, 74, -32, 29, 117, 0, -127, -103, -78, -89, 19, -92, -6, 12, -9, 76, -60, -75, -9, -59, -65, -27, 101, 6, -102, 2, 8, -96, -66, -48, 23, -129, -15, 41, 3, -16, 4, -5, -20, 33, -186, 25, -41, -47, 26, -28, -25, -34, 8, 84, -55, 81, 6, -97, -79, 28, 25, -77, 22, 22, 87, 1, -37, -1, -11, 15, 100, -49, 65, 24, -79, -56, 10, -132, -123, -44, -37, 9, 3, -38, -100, 146, 94, 56, 47, 40, 0, -47, -87, -27, 59, 30, -63, 65, 84, 115, 63, -63, -48, 66, -75, -54, 105, 41, 158, -65, 49, 74, 7, 30, 100, 86, 39, 71, 86, 8, 77, 61, 32, 6, 76, -150, -16, -153, -156, -128, -5, -101, -87, -76, -14, -144, -79, 57, 93, -3, 99, -76, 22, 78, 35, 4, -65, -135, -165, 56, -20, 13, 72, -80, 13, -86, -32, 26, 19, -47, 0, 30, 35, -52, 14, 74, -105, 38, -24, 8, 4, 38, -54, 100, 159, 39, 200, -53, 19, -52, 63, 83, -32, -2, 70, 52, -21, 63, -77, -12, 64, 29, -68, 14, 62, 21, -9, 102, 62, -25, 32, -33, 12, 33, 50, 26, 53, -13, 15, 75, -35, -76, 9, 36, 43, 19, 28}
, {47, 24, -43, 42, 132, 42, 12, 33, 20, -222, -11, -88, -114, -88, -58, -95, 5, -1, 89, 61, 97, 5, -26, 61, 25, -1, 51, 94, -59, -55, -19, 52, 18, -120, -2, -50, -86, -9, -4, -24, 70, 42, 82, 18, 54, 65, 42, 29, 81, 16, 121, -77, 63, -71, 56, -112, 39, -39, 24, -29, -17, -119, -92, 18, -131, -146, -8, -52, -121, -14, 14, -106, 61, -10, 116, 184, -134, -29, 0, -172, 80, -54, -44, -83, -41, 51, 7, -8, 31, 126, -46, 42, -4, 56, 18, -3, 138, 40, -43, -22, 64, 58, 96, 121, 37, 16, 17, 37, -8, -27, -108, 20, 30, -17, 135, 60, 0, -55, -10, 3, 0, -41, 51, -16, 117, 82, 76, 93, 66, -1, 38, -29, -91, -27, -25, -54, 60, 70, -47, 21, -32, -51, 20, -44, -122, -30, 44, 58, -33, -56, -20, 42, 49, 55, 124, 139, -102, 14, -41, 8, -79, -23, 60, 25, -6, -38, -8, -107, 45, 68, -119, -40, 37, -20, -44, 25, -1, -78, -41, 65, 13, 78, 59, -50, 85, 94, -10, 132, 47, -42, -1, 69, -109, -21, 60, -182, -115, 38, -48, -73, -86, -104, -66, 1, 77, -55, 21, -55, -33, 48, 52, -31, -14, -26, -117, -49, 47, 13, -53, -35, 54, 75, 11, -10, 102, 130, 28, 56, 92, -80, -30, 69, 0, 14, 16, 99, 25, 13, -4, -36, -43, 75, -131, 57, 92, -35, -78, -149, 3, 87, -24, 44, -68, -162, -100, -78}
, {35, 13, 20, -11, -17, 41, 8, -63, 154, 183, 82, 131, -55, 18, -1, -13, 37, -40, -12, 3, 28, -29, -5, -97, -96, -38, -40, -76, 11, 7, 85, 82, 87, -50, 114, 12, -9, -19, 2, 35, 6, 30, -48, 0, -62, 13, -127, -43, -28, 12, -39, -12, 11, -19, -63, 52, -38, 51, 53, -61, -13, 27, 39, 48, 120, 107, -35, -58, -57, 86, -38, 18, -112, -29, -44, -158, 21, 47, -25, 78, -40, -28, -23, -32, -87, -53, 60, -52, 79, 5, -13, -23, 125, -60, 111, -65, -118, -51, 15, 110, -7, -103, -76, -41, -26, -73, -72, 10, 46, -27, 71, -11, -33, -83, -45, -32, -12, 120, 32, 17, -42, 16, -14, -37, -82, 23, 39, -52, 5, 60, 25, 7, -65, 61, -77, -22, -21, 75, 25, -30, -62, 61, 82, 46, 129, 108, -23, 8, -116, -32, 8, -62, 42, -8, -51, -114, 140, 27, 77, 63, 87, -47, -11, -1, -20, 57, -39, 29, 0, -57, 42, -79, -165, -73, 54, -103, 19, 100, 90, 53, 5, 6, -19, 78, -121, -74, 54, -73, -9, 25, -17, -75, -21, -12, -27, 4, 115, 54, 26, 113, 63, 91, 29, 99, 24, 36, 72, 89, 13, -36, 23, 71, 77, 79, 72, 20, -20, -77, -56, -47, -47, 20, 26, -26, -50, -16, -77, -55, -9, -21, 17, -78, -85, -27, -56, -36, 124, -7, 101, 112, 115, -38, 130, 54, -30, 95, 8, 140, 77, -24, -103, 10, 123, 176, 14, 246}
, {36, 44, 39, 16, -26, -91, -59, -6, -42, -18, -91, -39, 10, -37, -55, -40, -95, -5, -75, 82, 74, 42, 51, 10, 194, 56, -19, 92, -106, -41, -57, -15, -17, -63, 92, -91, 88, 4, -41, 39, 15, 20, 3, 112, -74, -23, 78, -51, -138, -63, -113, -109, 3, -46, 19, -13, 3, -2, -1, 36, 23, -18, 76, 0, 146, 203, 141, 285, 123, 22, 29, 64, 12, -2, -43, -65, 7, 40, 81, 46, -19, 95, 25, 16, 80, 43, 66, 17, -68, -105, -78, 60, -52, 42, 12, 81, 84, -20, 107, -16, -14, -29, 149, 98, -34, -55, -115, -37, -62, -54, -3, -33, 80, 64, -68, -86, 105, -93, 10, 89, 53, -81, -100, -77, 59, 9, 4, 94, 80, -4, 36, -29, 59, -59, -18, 116, 40, 58, -27, -61, 37, -77, 4, -55, 6, 48, -75, 100, 107, 18, 0, 105, -35, 132, 53, 97, 65, -1, 111, 78, -90, -7, 45, -23, -20, 4, -16, 72, -9, 112, -48, -34, 141, 157, 78, 47, -11, 11, -2, 36, -64, 71, 58, -73, -25, 29, -81, -7, 24, -6, -1, 128, 27, 2, 65, -32, -52, -20, -37, -1, -24, 24, 18, -46, -5, -42, 60, -12, 189, 11, 113, -27, 14, 43, 4, 4, -144, 127, -51, -71, 131, 48, 36, 46, -11, 64, 51, 153, -61, -17, -126, 23, -8, -32, -45, 21, -22, -42, -80, -69, -119, 38, -175, -118, -96, -3, -53, -171, 0, -14, 29, -61, -101, -128, 52, -17}
, {-16, 12, -9, 9, -17, -3, -47, -44, -138, -94, -121, -77, 73, 81, 3, 10, -84, -12, -56, -74, -83, -62, 19, -7, 35, -56, -2, -63, -2, -53, -38, -82, -52, 11, -18, -43, 104, 46, 33, 24, 72, 30, -35, 36, -23, -14, 62, -28, 35, -7, 119, -15, -30, -9, 81, 0, -28, 18, -22, -9, -73, 37, -24, -64, -21, 54, 79, 253, 143, 77, 116, 166, 81, 80, 19, 112, 88, 57, 31, -22, 61, 45, -38, -78, 0, -3, -19, -31, -36, -4, 10, 71, -8, -49, -136, 53, 81, 59, -80, -85, 53, 27, 48, -61, 47, -42, 0, -73, -56, 12, -65, -28, -8, 145, 93, 27, 51, -57, -10, 109, 94, -84, 50, 79, -30, 77, 21, 20, 3, -70, 26, -110, 49, -3, -47, -19, -72, -56, -24, -66, -58, -72, 80, -56, -158, -72, -68, 22, 67, 28, -27, 26, -114, 89, 123, 6, 6, 18, 39, -68, -117, -9, 36, -118, 55, 39, 117, 15, 80, 86, 57, 86, 147, 131, 63, 46, -16, 6, -12, -14, -95, -4, -5, -55, -17, 14, 60, 15, 49, 22, -62, 44, -21, -44, -19, 13, -30, 87, -2, 76, -44, -85, -2, -29, 34, -33, 52, -21, 74, 32, 28, 44, 55, -59, -1, -109, -26, 146, 21, 70, 124, 9, 57, 18, 80, 8, 12, 88, -122, 93, 18, 15, 32, 73, 64, -32, -2, -2, -56, -99, -147, -95, -116, -82, -65, -92, -55, -152, 27, -40, 71, -37, -53, -152, -26, -98}
, {91, 139, -21, -70, -77, -68, -38, -29, -37, -37, -6, -4, 35, 17, -12, -47, -49, 11, -34, 57, -47, -127, -85, -59, -61, -9, -105, -93, -47, -108, 8, -68, -8, 25, -19, -130, 99, 68, 95, 57, -55, -30, 94, 11, -67, -95, 52, -37, -43, -82, 6, -22, -38, 12, 54, 34, 42, 86, -49, -54, 7, -57, -64, -37, 13, 162, 174, -20, 115, 59, 60, 114, 78, 68, -43, -69, 18, 22, 111, 88, -214, -130, -89, -73, -15, -71, -47, -64, -142, -7, -46, 56, 7, -130, 38, -48, -4, -33, -5, 133, -54, -10, -31, -135, 29, -26, -58, -2, -18, 94, 26, 89, 57, 99, -15, 31, -99, -45, -62, 23, 30, -57, 62, -144, 49, -12, 4, -28, 39, 64, 69, 19, -47, 57, -12, 28, 37, -34, 49, 27, -48, 46, 57, -59, -1, 55, 83, 102, -40, 64, 82, 45, 5, 80, 73, -6, 8, -52, 32, -47, 51, 40, -28, 32, -125, 35, -40, -41, -77, 72, -6, -22, 85, 78, -25, -76, -9, 87, 96, 52, -133, -56, 66, -115, -102, -87, -112, -119, 32, 2, 12, 82, -11, 25, -24, 46, 32, 46, -48, 80, -81, -33, 60, 52, -46, -18, 28, 85, 87, 23, 29, 26, 121, 12, 125, 95, -58, -2, -124, 49, 181, 60, 92, 87, -3, 11, 23, 89, -68, 40, 48, 101, -81, 43, 60, -168, 76, 68, 37, 24, -107, -25, -13, -77, 18, 3, -71, -64, -52, -68, -44, -164, 61, 2, 14, -2}
}
;

#undef INPUT_SAMPLES
#undef FC_UNITS