/**
  ******************************************************************************
  * @file    weights/fc.cc
  * @author  Pierre-Emmanuel Novac <penovac@unice.fr>, LEAT, CNRS, Université Côte d'Azur, France
  * @version 1.0.0
  * @date    24 march 2020
  * @brief   Template generating plain C code for the implementation of Convolutional Neural Networks on MCU
  */

#define INPUT_SAMPLES 256
#define FC_UNITS 32


const int16_t dense_bias[FC_UNITS] = {0, -15, -54, 34, 30, -8, 54, 22, 36, -3, -37, 26, -22, 10, 5, -50, -37, 54, 45, -40, 31, 41, 10, -17, -30, -45, 30, -29, 7, 0, -38, 40}
;

const int16_t dense_kernel[FC_UNITS][INPUT_SAMPLES] = {{-78, 6, -101, -36, -12, -41, 0, 40, 35, -31, 56, 101, -114, 31, -139, -104, -133, 14, -31, -10, 19, -61, 50, -81, 27, -20, 47, 5, 36, 34, 76, 46, 39, 10, -72, -36, 74, -17, -26, 81, 88, -31, 154, -5, -91, -17, -62, -101, 19, 96, 52, 35, 38, 138, 0, 164, -35, 42, -29, -33, -70, -23, 3, 54, 59, -64, -35, 90, 79, -40, -10, -18, -54, -9, -95, -41, -24, -50, -27, 1, -19, -47, -73, -20, -55, 127, -88, -55, -9, -18, -34, -35, 48, 23, 132, -9, -98, 11, 17, -114, -49, 12, -27, -69, 43, 55, 34, -19, 47, -15, -70, 7, -94, -17, -41, -3, 33, -26, -1, -73, -72, 6, -30, 76, 5, 69, 46, -56, -56, -75, 5, -69, -81, -39, -59, -61, 39, -16, 43, -63, 27, 12, 69, 6, 8, 3, 0, -111, 8, -50, -85, -19, 66, 139, 101, -30, -22, 0, -17, -73, -53, 35, 25, 98, 65, 54, 29, 31, 72, 83, -7, 38, 9, -86, 27, -83, 56, 24, 28, 80, 42, 52, 120, 95, -44, 79, 93, 15, 30, -22, 6, -30, -91, -128, -8, -99, -26, -23, 15, -26, -27, 19, -17, -21, 2, -56, -46, -76, 57, -58, -78, 40, -74, 33, 42, 69, -24, 43, 0, 52, 41, 17, 64, 61, 140, 102, -20, 25, 28, 5, 21, -124, 54, 32, 28, 16, 9, 14, 116, -5, -4, -48, -37, -39, 84, 4, 52, 60, 101, 64, -17, 29, 27, -1, 31, -8}
, {96, 113, 31, -14, -57, -33, -18, 28, 40, -40, 2, -106, 96, 30, 135, 53, 27, 81, 31, -6, -66, -72, 27, 37, 19, -61, 38, 15, 55, 30, 41, 8, -57, 36, -18, -31, -12, 20, -1, -88, -27, -49, -39, 10, 133, 43, 80, 24, 57, -41, -58, 2, -59, -14, -77, -119, 12, -61, 21, 30, 65, 56, 57, 85, -43, 43, 20, -127, 44, 53, 17, 38, -18, 64, 65, 55, -17, -37, -53, 61, -9, -8, -1, -59, -30, -29, 43, 1, -29, -33, -39, -34, -34, -27, -78, 64, 85, -87, 54, 22, 77, -31, 71, 142, 37, -38, -23, 46, -43, -40, -45, 4, -16, 93, 71, 20, -103, 67, -100, 24, 62, 99, 3, -63, -36, -84, -123, 20, 71, 53, 70, 36, 6, 53, -47, 51, 28, 6, -31, 36, -35, 50, -8, -10, 23, 88, -72, 6, 23, 36, 49, -73, -84, -85, -11, -100, -67, 0, 9, 100, -11, -47, -103, -108, -117, -12, 22, -19, -64, 82, 2, 7, 57, -16, 73, 16, -48, -44, -6, -75, -49, -59, 10, 11, 49, -47, 23, -4, 29, 20, -17, -75, 174, 27, -3, 83, 66, 5, 50, -94, -38, -21, 37, 16, 18, 113, -6, 24, -58, 59, -33, 23, 100, -38, 15, 31, 69, -7, 59, -63, -44, -81, 21, -12, -141, -134, -85, -89, 28, -54, 90, 110, -40, -34, 7, -77, -86, 54, -110, -48, -69, -1, 55, 51, 35, -66, -10, -73, -49, 31, -9, -1, -71, -50, -3, 1}
, {37, 89, -9, 73, -42, -37, -44, -61, -54, -12, -17, -29, -150, -80, -38, -19, 73, 123, -18, 12, -29, 5, -69, -24, -50, -28, 8, 43, 123, -11, 84, 85, -9, 29, 123, 0, 63, 11, 0, 127, -26, -74, 3, 3, 75, -24, 71, 108, -21, 54, 102, -30, -57, 65, -79, -50, -82, -70, 21, -107, 64, 41, -76, -22, -27, 78, -33, 39, -47, -13, 15, -42, -65, -26, -19, -55, -112, 77, -45, 64, 52, 74, -16, 91, -12, 52, -29, 56, -11, -45, -19, 58, 26, -23, 58, 37, 31, 78, -74, 43, 87, 117, 21, 9, -77, -1, -62, 5, -56, -30, -43, -55, -40, -47, -31, -27, 55, 60, 60, 13, 40, 65, -58, 20, -17, 43, -58, -18, -14, 5, 37, -41, -36, 7, -25, 3, -58, 31, -71, -74, 10, 53, 14, 18, 114, 84, 51, 62, -9, 18, -52, 86, -66, 55, 64, -5, 10, 40, -8, 31, -44, -13, 26, -41, -24, 49, 36, 74, 84, 141, 36, -13, -157, -22, -86, -4, -55, 50, 42, -22, 45, 80, -7, -56, 0, 113, 70, 57, -11, -58, -45, -101, 83, 31, -57, -104, 10, -20, 89, -5, -12, 76, -35, 23, -87, -17, -25, 62, 80, -99, -26, 2, -6, -17, -44, 45, 18, 43, -63, 43, 4, 27, 2, 83, -119, -26, -115, -15, -22, 23, 57, 79, 90, -51, 30, 28, 37, -28, 93, 19, 8, -5, 84, 49, 1, 1, 53, 43, 66, 108, -38, -36, 79, -9, -58, 89}
, {-111, 14, -9, -38, 114, 27, 13, -6, 81, -2, -67, -10, 47, 26, -23, 55, -91, 9, -21, 14, 101, 62, 27, 30, 45, -89, -28, -47, 6, 36, -50, -96, -23, -75, -51, -36, -67, -2, 16, -65, 32, 20, 59, 21, -134, 55, -68, -98, -61, 14, 12, -32, 3, 32, 65, -2, 98, 34, 0, 39, -63, 24, 37, 40, -8, -16, -20, 45, -71, -7, 3, -102, 18, 41, 52, 28, 73, -28, 19, -43, -9, -23, -39, -25, 29, -23, -52, -83, 15, -79, -16, -82, -16, 38, -35, -24, -16, 21, -66, -10, 7, -39, 17, -136, 0, 67, 3, -55, 49, -9, 70, 37, 17, -41, -76, -8, -25, -129, 40, -119, 31, -33, 57, -31, -6, 26, -17, -13, 31, 3, 43, 27, 66, 71, 8, -43, 113, -36, 13, 1, -22, 12, 78, -21, -74, 2, 35, 24, -37, -28, -67, -48, 43, -13, -63, -72, 11, 84, -69, -27, -40, 35, 13, 61, 148, 73, -21, 68, -58, -24, 13, -69, 95, -42, 57, 61, -27, 12, 30, -4, -16, -55, 61, 43, -81, 7, -17, -100, 0, 58, 93, 83, 26, -43, 112, 17, -66, -16, -111, -42, 29, -65, -18, 13, 3, -4, -41, -1, -71, 8, 19, 90, -32, 90, 55, -9, -105, -37, 46, -39, -18, 41, -44, 48, 169, 55, 61, 134, 32, -15, -109, -51, -55, 38, 78, 12, 64, -21, 20, -16, 77, -58, -31, 38, 34, 51, 61, 57, -28, -37, 36, -59, -15, 25, -43, 32}
, {111, -29, 62, -30, 58, -3, 25, -81, -37, 19, -41, 43, 250, 81, 97, 43, -5, -19, -28, -126, -5, 55, 89, 69, 27, 70, 121, 25, 21, 37, 8, 26, -4, 49, 51, -40, -51, -10, -88, -120, -67, -9, -2, -67, 108, 40, 56, 71, -54, -68, 9, -71, 54, -94, -38, -83, 32, 6, 12, 46, -69, -75, -5, -27, -49, -43, -40, -90, 40, 12, 75, 153, -32, 66, -12, 102, -54, -70, 81, -36, -121, -68, -93, -47, -43, 1, 11, -43, -63, 0, 30, 118, 12, 4, -90, 35, 64, 2, -18, -4, -50, -74, 12, 63, 42, -25, 44, 14, 1, 70, -53, 72, -6, 31, 0, -3, -112, 55, -88, 0, 27, 31, -40, 7, 40, 37, 96, 11, -51, -6, -1, -56, 33, 21, -59, 105, 25, -12, 35, -23, -60, -8, -92, -13, -21, -5, -86, 41, 9, 150, -19, 121, 270, 30, 21, 35, -106, -132, 27, -75, 20, 13, 25, -78, -63, -48, 25, -89, -67, -130, -49, -40, 31, 0, 34, 67, 43, -23, 54, 7, -4, -104, -78, -109, 1, -3, -47, -40, -29, -62, -39, 18, -66, 23, 79, -45, 14, 84, 96, 58, -33, 13, 48, 2, 16, -19, 16, -13, 67, 16, -8, -10, -47, -83, -35, 21, -17, 11, -26, -11, -36, -19, 53, -38, 18, -10, -41, -62, -80, 9, 51, 57, -79, 49, -21, -40, -16, -7, 4, -82, -7, -16, 20, 36, 7, -68, -35, -31, -6, 50, 60, 32, -48, -49, 39, -2}
, {31, 4, 80, 69, 36, 6, -72, -26, -35, -65, -62, -17, 122, -30, 66, -27, 170, 86, 16, -27, -14, 61, 55, -53, 33, 66, 52, 26, -61, 0, 18, 52, 3, 15, 41, 41, 41, -17, -90, -34, 66, 7, -25, -3, 52, -5, 90, 38, -1, 0, -86, -53, -30, -21, -63, -177, -2, 42, -8, 51, 54, 22, -27, 43, 34, 67, 102, -73, -45, 67, 12, 21, 65, 85, -9, 83, 18, 17, 52, 86, -11, -36, 114, 0, -16, -45, -6, 75, 30, -35, 27, -65, -63, -99, -64, 130, 84, -66, 30, 138, -12, -43, 45, 53, -48, 36, -59, -32, -34, -2, -1, 48, -16, 56, 41, 27, -124, 66, -35, 52, 12, -1, -41, -139, -156, -172, -56, -56, -16, 84, -34, -1, 41, 71, -37, 62, -57, -3, 57, 36, -64, 80, -34, 52, -28, 28, -18, 78, 18, -51, 63, -23, -101, -75, -71, -105, 16, -52, 6, -34, -24, -116, -139, -36, -39, -68, -36, -28, -86, 12, 40, 6, 24, -41, -30, 62, -5, 78, -64, -96, -133, -10, -21, -107, 10, -16, -35, 4, -19, -6, -109, 9, 168, 47, 89, 102, 1, -8, 24, -78, -26, -10, -54, -80, -37, 0, 22, 82, 48, 81, 27, -58, 92, 38, -15, 68, 60, 72, -26, 29, -113, -31, -65, -31, -147, -68, -67, -11, 87, 52, 64, 84, 18, -37, -48, -68, -8, 89, -45, -109, -22, 7, 65, 0, -39, 14, -54, 0, -69, -53, 2, -56, -100, -10, 8, -70}
, {-20, -3, -23, -66, 118, 73, -29, 71, 72, 72, -11, 41, 134, 122, 121, 163, -71, -156, -77, -33, 31, -21, 101, 22, 4, 26, 77, -10, -32, 48, 14, 12, 17, -17, 25, -74, -76, -77, 29, -36, 19, 54, -10, -8, 70, -34, -58, -49, 47, 5, -113, 60, 92, -120, 50, 82, 100, 8, 58, 39, 27, -1, 1, -24, 18, -67, -69, 8, 22, -92, 13, 54, -52, 62, -5, 11, -59, -13, -6, -58, -103, -69, -99, -23, -72, -49, 31, -31, -83, 89, 27, 46, -70, -30, -13, -64, -49, -41, -7, -54, -44, -59, -68, -117, 103, 33, 7, 21, 53, -25, 50, 1, 16, -8, -51, 17, -44, 31, 22, 17, -83, -4, 6, 15, 2, 50, 61, 41, 34, -101, -51, -48, 35, -61, 29, 33, 35, 11, 41, -67, -70, -56, -49, -96, -20, -67, -26, 43, 26, 1, -25, -14, 77, -4, 80, -42, -64, -74, 26, -18, 3, -38, -9, -40, 108, 7, 24, -127, -99, -77, -35, -170, 81, 104, 66, 32, 82, -24, 25, -58, -90, -61, 16, -17, 20, -50, 38, -27, 24, -36, 67, 65, -172, 76, 155, 29, 45, 63, 13, 36, 23, 54, 13, 65, -38, -29, -60, 28, -20, 113, -15, 0, -98, -106, -17, 19, -69, -22, -2, -81, 41, 18, -20, 24, 60, 89, 47, 42, -28, 64, 33, -112, -41, 69, 42, -57, -82, 0, 13, -84, -16, -9, -29, -68, -24, 23, 28, 11, 1, -35, 8, -54, -62, 45, 47, -29}
, {31, -5, -52, 18, -17, -45, -23, 93, 66, -6, 11, 23, -56, 76, -56, -59, -11, 54, 119, 56, 2, 54, -38, -30, -33, -83, -54, -95, -67, -40, -55, -102, -78, -68, -15, -41, -44, 0, -36, -31, 86, 36, 130, 111, -4, 7, -89, -90, -18, -81, 12, -41, 24, 5, 14, -39, -6, -78, -54, -37, -17, 17, 26, -44, 37, -4, 67, 140, -52, 19, -26, -90, -57, -21, -37, 64, 19, 81, -51, 21, 58, -55, 0, 28, -47, -37, -22, -35, 49, -2, 31, 14, 29, -29, 26, -53, 68, 22, 25, 69, -78, -91, -4, 4, -7, 39, 37, 19, -56, 94, -32, -64, -47, 62, -48, -24, 27, -39, -24, -48, 53, 35, -76, -12, 21, -97, -62, -142, 133, 46, 98, 103, -32, 21, -9, 35, 198, 0, -1, 112, 20, 25, -34, 17, -8, -24, -65, -38, -70, -144, 20, -163, -140, -47, -41, 5, 45, 22, 68, -65, 2, 73, -22, 29, 59, -57, -5, 86, -14, -40, 30, 140, 128, 48, -17, -4, -95, 59, 13, -32, 3, 28, -38, 76, 28, -15, -45, -112, 9, 166, 75, 111, 150, 33, 104, 125, -54, 34, -49, -43, 74, -19, 14, 94, 99, -19, 50, -77, 21, -20, 22, -32, 116, 34, -41, 131, 26, -118, 34, -32, 18, 73, -31, -12, 139, -19, 59, 47, 53, -10, 36, 2, 24, -34, -32, 33, -70, -44, -47, 28, -10, 25, 43, 47, 34, 9, 53, 76, -91, -76, -14, 26, 50, -40, -4, 43}
, {115, -50, 19, 36, 107, 4, -26, 49, -45, 29, 41, 50, 204, 25, 148, 109, -40, -52, -65, -37, 67, 46, 108, 79, 40, -30, 95, 77, -67, -19, -31, 10, 68, -35, -3, -78, -82, 42, -22, -65, -57, -17, -37, 30, 101, 69, 0, -35, 18, 28, -62, -57, 74, -155, 48, -56, -20, 93, 53, 94, 0, -80, -64, -2, -14, -9, -32, -62, 46, -34, -30, 50, 71, 22, 25, 97, -7, 6, 85, 25, 3, -54, -25, -58, -38, -136, 75, -13, 27, 81, 68, -1, -84, -11, -125, -107, 46, -24, 12, -50, 8, 11, -23, -43, 64, 83, -5, 131, -53, -37, -36, -7, -37, 59, -28, 13, -100, 82, -49, 10, -11, 35, 32, -66, 44, -31, 5, 105, -65, 28, -14, -45, 37, -17, 19, 71, 29, 103, -73, 27, -12, -13, -32, -13, -69, 65, -86, -56, 20, 19, 43, 109, 197, -90, 8, -25, -68, -63, 70, -66, 10, -3, -18, -41, 4, -70, 46, -57, -127, -28, -103, -70, 105, 90, 16, 16, -91, 29, -43, 38, -84, -52, -75, -65, -42, -35, -50, -28, 55, -88, -9, 99, -116, 132, 131, 50, -2, 14, 113, 52, 62, 55, 23, -35, 87, 7, -18, 50, -43, 69, -56, -50, -11, -85, -42, -39, -54, -49, 4, 0, 99, 7, 58, -27, 27, -26, 69, 32, -22, -6, -25, -60, -16, -22, 0, -33, -31, -59, -92, -127, -40, 41, -63, 67, -22, -33, 18, -103, -49, -17, 25, -5, -74, 48, -14, -80}
, {-8, -85, 46, 3, -4, -33, 2, -13, -32, 35, 24, 50, -149, -16, 29, 64, -44, -119, 37, -32, 33, -24, -5, -82, -59, 65, -42, -55, 54, -81, 5, 66, 6, 91, 92, 33, 18, -56, -1, 73, -36, -63, -21, -17, -83, -49, 5, -99, 28, 0, 100, 31, 80, 129, -27, 171, 11, -17, -26, 57, -75, -23, 26, -96, 15, 0, -88, 34, 8, -64, -46, -72, 19, 14, -38, 1, -67, 12, -54, -87, -24, 27, -26, -71, -80, 85, 34, -76, -28, 103, -57, 71, 61, -52, 23, -41, 18, -7, 29, -66, -28, 0, 14, -71, 5, 22, -42, 19, 0, -5, 15, 28, 0, -77, 0, -49, 12, -4, 110, 77, -60, -87, -27, 30, 93, 93, 35, 31, -9, 1, 14, -81, -59, -84, 38, -65, -1, -97, -82, -111, 67, -1, 70, 20, 87, -40, 133, -99, 4, 123, 0, 119, 48, 73, 102, 95, -2, 49, -40, -77, -41, 86, 96, 110, 61, -8, 48, -72, 15, 23, 72, -115, 0, -14, -62, -90, 132, 16, 67, 50, 75, 96, 64, 86, -73, -16, 88, 47, 0, 46, -49, -14, -107, -83, -106, -2, -29, 58, 42, -11, -31, -23, -52, 12, -85, 11, -78, -107, 72, 28, 23, 97, -59, -12, 35, -15, -69, -19, 38, 55, 95, -52, 44, 110, -52, 57, -90, 15, -79, -10, 19, -80, -52, 61, 92, -7, 95, -73, 32, 73, 59, -24, -37, -102, 56, -51, 50, 11, 130, 66, 111, -2, 32, 76, -5, 28}
, {-45, -35, -2, 27, -89, -13, -45, 0, -18, 62, -40, -17, -90, -20, -35, 9, -83, 28, 48, 6, -38, -57, -42, 25, -20, 48, -75, -17, 79, -6, 16, 121, -12, 88, -9, 108, 24, -54, 3, 99, -96, -14, 27, -84, 45, 58, 69, -20, 99, 10, 21, 48, 31, 72, 6, 75, 54, -55, -50, -76, -66, -45, 33, -70, -43, -33, -13, 36, 69, -34, -39, -31, 77, -37, -41, -91, -1, 5, -74, -64, 91, 14, 25, 75, -6, 62, 60, -42, 17, -28, 34, 78, 87, -47, 0, 101, 37, -53, -29, -68, 98, 85, 47, -24, -64, -31, 11, -66, -57, -34, -37, -29, -80, -35, 6, -5, -24, 88, 120, 133, 58, 19, 74, -4, 57, -11, -51, -32, -50, -50, 4, -14, -66, -54, -1, 10, -83, -31, 2, -1, 68, -37, -19, -24, 57, -66, -27, -35, -25, 55, 75, 118, 74, 113, 66, 11, 8, -25, 7, -1, -54, -62, 0, 105, -24, -17, 3, 32, 96, 123, 111, -80, -59, -44, -76, -100, 49, -29, -18, -27, 58, 21, 78, 15, -70, 14, -3, -8, -54, -71, -13, -131, -48, -26, -188, -120, -27, 70, -14, 92, 24, 40, -14, -37, 10, -89, -58, 39, 21, -43, 73, -49, -50, 22, -82, -75, 28, 99, -30, 8, -9, -44, -7, 11, -114, -24, -48, 4, 31, 21, 13, 51, -23, -21, 25, 77, 31, 29, 169, 3, 7, 42, -43, -95, 52, 7, 76, -23, 8, 14, 78, 23, 18, 25, 46, 94}
, {5, -63, 55, -57, -72, 22, 49, -3, 40, 21, -12, 66, 180, -16, 76, 178, -67, -16, -50, -83, 27, 7, 72, -1, 84, 25, -5, 21, -46, -52, -5, 12, 123, 63, 104, -22, -49, -13, 24, -104, -182, -19, -78, -108, 81, -38, 107, 45, 9, 28, 13, 60, 85, -20, -11, 46, -15, 74, 42, 111, -21, -74, -57, -42, -136, -18, 19, -63, -53, 39, -19, 55, 60, 13, 84, 35, -112, -29, 23, -47, 5, -46, 0, -33, 51, -81, 82, -86, 64, 122, -18, 42, 29, 9, -94, 45, -45, -22, -60, 39, 13, 64, -24, 13, -23, 21, 45, 42, 24, -18, -24, 79, -32, 29, -2, -8, 15, 27, 40, 30, 9, 45, -52, -27, 89, 30, -9, 126, -75, -123, -68, 58, -12, -50, -52, -24, -110, 2, -76, -138, -41, 14, -8, -71, 8, -8, -72, 46, 91, 76, -11, 133, 337, 121, 7, -52, -86, -19, 53, -14, 119, -51, 82, 46, 14, 33, -12, -113, -88, -111, -79, -67, -83, 67, 35, -7, 50, 70, 63, 82, -81, 11, 13, -86, 39, -45, -34, 65, 26, -77, -73, -88, -131, 119, -44, 36, 45, -10, 7, 56, -72, 95, 30, 47, 40, 5, 12, -30, 5, 34, 10, -54, -88, -137, -47, -106, 42, 62, 34, -30, 46, 47, 61, 61, 4, 26, -75, -53, -103, 103, -48, -13, -54, -74, -30, -18, -57, -24, -71, -5, -65, 58, -64, -39, 18, 36, -17, -111, 79, 37, 139, 44, -36, 38, 18, 13}
, {-98, -37, -83, -37, 21, -58, -14, -26, 50, 53, 7, 77, -212, -117, -166, -118, -14, 53, 90, 107, -65, -74, 17, 0, -79, -23, 0, 13, 22, -13, -8, -12, -10, 3, -20, 43, 57, 16, 24, 106, 81, 23, 51, 84, -111, -59, 13, -70, -6, 104, 79, -25, -62, 66, -69, 50, 53, -90, 41, 19, 23, 36, 35, -26, 58, 58, -72, 30, 59, -39, -44, -66, 58, -72, -38, -95, -70, 32, 52, 55, 3, -24, 71, 48, -55, 130, -86, -68, 11, -35, -23, -87, 108, 48, 28, 49, -117, -38, -62, -63, -49, 81, -43, -12, 0, 11, -48, -101, 44, -90, -4, -81, -31, -36, 7, 1, 21, 13, 42, -37, -13, -54, 56, 35, 46, 113, 5, 15, 69, 55, -8, -92, 4, -32, -39, -96, 7, 13, -29, 0, 109, -50, 13, -43, -13, -30, 1, -19, -37, -75, 35, -18, -119, 74, 122, 2, 77, 43, 4, 53, 26, 104, 85, 79, -66, -28, -4, 55, 156, 90, 114, 130, 9, -88, -39, 4, 65, -41, -20, 29, 117, 122, 104, 54, -77, 2, 61, 38, 44, 41, 85, -25, 46, -114, -37, -31, 11, 18, -99, 19, -18, 3, -33, -33, 2, -85, -48, -11, 29, -122, -43, 38, 42, -28, -77, 79, -62, -6, 49, 54, 48, 1, -51, 113, -12, 117, -63, 26, 84, -50, 25, -21, 78, -40, -63, 56, 76, -5, 80, 96, -27, 40, -81, 11, 69, 67, -5, 80, -4, -39, -65, -38, 104, 39, 48, 75}
, {22, 20, 21, 2, -34, -47, 131, 60, -27, -33, 89, 47, 49, -12, 33, 124, -114, -33, 6, 14, 14, 78, 80, 58, -14, -2, -18, -12, 56, 2, 65, 26, 47, 38, 74, 19, -1, -84, -46, -7, -113, -30, -72, -42, 32, -8, -31, 35, 77, 66, -49, 36, 54, 69, 39, 49, 27, 9, 15, 11, -55, -37, -69, -47, -66, -149, -34, -98, -30, -50, -43, 5, 24, 87, 15, 28, -107, -22, -11, -18, -16, 22, -79, -90, -51, -12, 63, 32, 23, 106, -57, 56, -24, 48, 27, 10, -48, 72, 36, -90, 78, 22, 19, 24, 88, 4, -18, 10, -8, -44, 34, 4, 37, -160, -83, -65, -16, -19, 13, 114, -52, -51, 88, 42, 123, 135, 92, 86, -115, -79, -34, -62, -37, -58, 13, -39, -148, -24, -79, -89, -75, 23, 7, -33, 40, 17, 56, -44, 15, 114, 19, 63, 163, 103, 126, 90, -8, 10, 31, -60, 59, 42, 2, 104, -37, 102, 79, -24, -62, 6, 20, -151, -36, 24, -86, -29, 76, -49, 7, -12, 110, 101, 54, -56, -78, -46, 0, -5, 19, -35, -59, -70, -208, 10, -111, -80, 123, 25, -25, 113, -93, 71, 45, -84, -36, 17, -116, -51, 50, 52, 3, 101, -156, -46, -10, -108, -6, 12, -51, -40, 75, 23, -12, 99, 17, 35, -37, -12, -15, -9, -14, -34, -9, 56, 59, 32, -43, -22, 44, 24, -10, 29, -136, -65, -38, -45, -42, -76, 53, 118, 102, -2, 25, 54, 9, 54}
, {68, 9, 86, 16, 30, -14, 20, -31, -58, 47, -30, -24, 120, 34, 191, 147, -69, 14, -19, -129, 61, 29, 43, -34, 15, -2, 86, -28, -9, 9, 11, -36, 78, -58, 77, 6, -60, -61, -98, -71, -54, 33, -92, -62, 16, 65, 53, 82, -34, 38, -65, 8, -41, -82, -46, -47, -26, 20, -10, -1, -46, 40, 20, -50, -7, 1, -79, -134, -56, -58, -48, 28, 4, 55, 8, 90, -101, -17, -26, 1, -25, -88, -111, -103, 53, -81, 10, -70, 27, 77, 0, -4, -48, -115, -72, 1, 82, 10, -32, 77, -41, 69, 85, 89, 78, 12, 74, 90, 23, -52, 56, -28, -10, -18, 50, 23, -17, 79, -88, 0, 30, 72, -23, -63, 16, -70, 1, 13, -30, -105, -45, -12, 13, -93, 30, 59, -79, 29, -74, -27, -110, 41, -41, -40, 31, 50, -10, 32, 148, 175, 35, 145, 204, 14, 55, 16, -39, -105, -18, -7, 86, -72, 42, -66, -24, 16, -38, -35, -68, -98, -31, -23, 37, 5, 20, -5, 68, 78, -21, 34, -61, -14, -22, -133, 23, 1, -74, -38, 0, -43, -84, -60, -178, 21, 0, -1, 129, 93, 45, -52, 46, -33, 62, 49, 56, 20, -3, 81, 14, -17, -38, 2, -116, -43, -39, -106, 29, 29, -60, -12, 74, -17, 17, -10, -100, -11, -62, -36, -63, -2, 78, -6, 8, -23, 24, -33, 12, -60, -62, -84, -6, 54, -61, 28, -40, -10, 3, -42, 41, 3, 111, -28, 18, 33, 4, 15}
, {20, 69, 48, -12, -6, 1, -13, -37, -79, -88, -15, -14, -121, -30, 0, 29, 42, -18, -10, 43, -48, 0, -97, 37, 1, 93, -9, 83, 24, -15, 59, 54, -24, -47, 44, 93, -40, 36, -81, 98, -81, 44, -105, -86, 23, 67, 30, 59, -29, 30, -19, -49, -56, 28, -79, 33, 19, -35, 3, 26, -1, 54, -27, -60, -63, -93, -80, -35, 80, 79, -3, -3, 23, -27, -76, -44, -7, -18, 44, -65, 20, -21, 7, -32, 78, 3, -8, -25, 7, 9, -6, 4, 60, -26, -11, 54, 19, -55, 3, 45, 25, 103, -39, 12, 21, 15, 17, -44, 40, 8, -60, 8, 45, 39, 26, -31, 48, 45, 67, 45, 86, -64, 58, 18, -13, -41, -53, 8, -99, 35, -32, -93, -36, 23, -25, -100, -117, -60, -38, -71, 14, 74, 42, -15, 118, 34, 40, 7, -14, 108, 63, 19, 50, -15, 6, -20, -105, 70, -42, 2, 33, -24, 68, 30, -18, 74, -30, -26, 82, 10, -24, 11, -75, -63, -26, -32, 71, 28, 76, -47, 4, -11, 10, -15, 9, 23, -32, 75, -76, -81, 12, -126, -12, -50, -104, -54, 63, 28, 26, 43, -98, 65, -39, 27, -38, -38, -43, -29, 3, -100, -48, 29, -98, -73, -90, 23, 75, 58, 55, 97, 26, -91, 8, -25, -126, 70, -43, -74, 30, -25, 62, 8, 53, 15, 17, 59, 54, 29, 94, -12, -68, -43, -41, 4, 65, 56, 33, -20, 50, 29, -22, 96, -4, 35, -49, -33}
, {-27, 29, 78, -26, -15, -82, -77, 0, -52, -7, 53, -18, -159, -17, -42, -100, 152, 36, 76, -33, -23, 3, -91, -2, -23, -3, -93, -99, -2, -15, -1, -39, 12, -7, 32, -64, 62, 16, -27, -1, 73, 63, 0, 85, -13, -9, -9, 29, 31, 65, 49, -6, -164, 53, -132, -162, -56, -101, -71, 5, 9, -11, -39, 82, 32, 109, 6, -30, 3, 107, 16, 45, 43, -26, 15, 2, 85, 85, 58, 103, -4, 144, 63, 136, 40, -23, -63, -29, 35, -53, -13, -35, -28, -8, -47, 144, -36, -66, 91, 137, 81, 35, -30, 2, -99, -73, -87, -64, 23, -50, -11, -100, -23, 85, 106, 107, -83, -33, -10, -3, 15, 35, 16, -64, -160, -58, -101, -147, 74, 166, 73, 72, -43, 47, 8, 28, -29, -13, -21, 118, -21, 4, 63, 99, -59, 32, -104, 11, -104, -140, 39, -121, -266, -148, -56, -35, 118, 38, -65, 106, -36, 28, 13, -117, -16, -91, -27, 86, 1, 113, 52, 216, -4, -87, 0, -28, -70, -17, -50, -21, -13, -27, -86, 79, 124, 25, 4, -36, -7, 34, -45, -82, 212, 94, -81, 103, -109, -53, 39, -57, 3, -7, -43, -50, -40, 80, 18, 73, 14, -98, 42, -56, 127, 125, -42, 135, -25, -64, 10, 80, -76, -96, -42, 31, -69, -15, 8, -30, 18, -56, 96, 149, 13, 21, -73, -18, -11, 125, 77, -28, -15, 92, 146, 98, -10, -67, -6, 59, -73, 72, -68, 38, 64, 51, 38, -45}
, {-39, 0, -18, 15, 102, 56, 52, 28, 19, 26, -39, 38, 208, -6, 104, 158, -15, -130, -71, 50, 81, 47, 47, -28, -3, 22, 59, -46, -6, -34, -30, -16, -56, -32, -18, -58, -99, -52, -54, 11, -57, -13, 50, 32, 64, -66, -38, 9, 13, -35, -79, -33, 119, -47, 67, 116, 70, 13, 37, 0, -44, 16, 46, -14, -111, -54, -61, -78, -78, -55, 32, -67, 19, -46, 53, -32, -10, -27, -4, -72, -95, -26, -94, -73, -59, -89, -41, 23, 37, 4, 70, 91, 29, -37, 49, -71, 38, -54, -34, -96, 12, -72, -13, -126, 23, 51, -2, 50, 13, 61, 29, 45, 62, -99, -42, -47, -17, -27, -48, 4, -78, 17, -32, -26, 12, 86, 83, 85, -62, -57, -36, 77, 77, -32, -10, 60, 27, 68, 17, 13, -102, -49, -42, 10, -44, -7, -11, -11, -50, -36, -89, -29, 175, 103, -59, 62, 16, -57, -62, -25, 44, 4, 55, 0, 89, 89, 44, -144, -65, -156, -88, -177, 124, 63, 74, 89, -38, 6, 65, -32, 30, 45, -9, -43, -36, -33, -19, -2, 10, 39, 140, 137, -95, 13, 36, -34, 57, -39, -2, 70, -46, -25, -24, -14, 17, 44, -22, -5, -37, 138, 0, 106, -54, -64, -2, -102, 45, 16, 20, -56, 90, 32, 7, 53, 74, 54, 88, 33, -130, 90, -98, -115, -41, 18, -35, -9, -19, -107, -98, -66, -39, 40, 3, 22, -94, -25, -10, 8, 24, 15, 46, 16, -32, 50, 0, 2}
, {-24, 2, -99, 5, 56, 1, 28, -40, 76, -26, -7, -8, 122, 133, -51, 76, 103, -20, -16, 29, 99, -56, 7, 58, 8, -64, 55, 13, -105, -42, -67, -94, -11, -48, 0, -47, -8, 31, 19, -104, -14, 54, 5, 93, 24, -21, -28, -76, 28, 15, -1, 8, 51, -79, 19, -48, 26, -24, 67, 52, 80, 39, 51, 45, -5, 66, 75, 0, 35, -49, -43, -11, 17, -22, 10, 44, 10, 58, 23, -42, -103, -8, -37, -16, -46, 31, 2, -32, 8, -40, 12, 28, -73, -9, 31, -45, -28, -19, 16, 62, -70, -25, -20, -86, -40, 27, -51, 17, -29, -28, -14, -9, 29, 58, -4, 99, -11, 45, -55, -60, -5, -1, 1, -52, -74, -104, -74, -85, 112, 31, 10, 0, 50, 66, -28, 91, 102, 102, 54, 65, 21, -13, -71, 1, -56, -71, -49, 71, 27, -120, -43, 17, -98, -17, -74, -36, 0, -6, -6, -58, -45, -56, 11, -62, 15, 4, 42, 38, -28, 19, -84, -6, 53, -13, 29, 112, -12, 71, 21, -69, -44, -42, -17, 18, -64, -76, -84, -94, 67, 87, 20, 76, 108, 19, 150, 44, -9, 20, -34, -99, 65, -104, -17, 44, 70, 105, -7, 62, -47, 104, 16, 26, 107, 40, 4, -5, -19, -16, -46, -81, -16, 72, 4, 5, 75, -21, 64, 44, 51, 0, -55, 11, 74, -11, 43, 9, -21, -33, -47, -94, -3, 57, -49, 45, -2, 39, -26, -33, -1, -88, 32, 33, -13, -90, -15, -40}
, {15, 53, -25, 62, -106, -78, -44, 5, -92, 30, 59, -53, -60, -59, 62, -80, 69, -8, 3, -46, -55, -18, -12, 18, -65, 45, -98, -41, 51, 28, 98, 123, 88, 87, 28, 53, 64, 0, -36, 18, -116, 38, -104, -33, 87, 30, 9, 31, 76, 106, 63, -17, 16, 79, -49, 40, -8, -36, 48, -82, -11, -9, 36, 72, 3, -27, 7, 17, 39, -37, 52, 53, -36, 23, -79, -14, 12, 3, 43, -36, -25, 71, 82, 18, 11, 50, 78, -24, -24, 68, -30, 84, -7, -56, -3, 77, -59, 56, -34, 85, 116, 10, -40, 86, 46, -2, -73, -43, -52, -57, -76, -80, -47, 4, -35, -97, -19, 51, 87, 47, 18, -18, 65, -3, -38, -12, -12, 18, -51, 18, 30, -6, 43, -58, -27, -85, -118, -43, 32, -48, 13, -42, 4, -38, 52, -12, -31, 44, 29, 46, 18, 100, 56, 55, 119, -30, -45, 58, -19, 96, -42, -51, -30, -29, -113, 83, 12, -27, 68, -4, 108, -21, -113, -62, -112, -95, -28, 19, 55, 79, 8, 71, 93, -28, 60, 48, -5, -4, -111, -80, -138, -110, -13, -36, -44, -7, 117, -9, -33, 26, -76, 93, -46, -70, -91, 23, 55, -33, 68, -90, 64, 47, -70, -42, -6, 10, 50, 25, 13, 4, 3, 37, 52, 26, -171, 56, -98, -65, 22, 61, -7, 81, 34, -4, -28, 44, 24, 62, 91, 108, 37, -31, 88, -41, 91, 32, -3, -85, 34, 12, -49, 0, 83, -55, -24, -28}
, {-26, -7, -110, 10, 58, 53, -1, 106, 11, -28, -29, 26, -78, -33, -46, 48, -40, -72, 34, 4, 92, -15, -27, 11, -60, -50, -30, 21, 9, -65, 34, -54, -27, 70, 19, 51, 30, -64, 20, 76, -97, 12, 37, 84, -121, -40, 3, -27, -35, -35, 51, 90, 34, 99, 37, 130, 71, 91, 48, -13, 40, -92, -61, -44, -27, -18, -96, 92, -30, -82, -64, -68, -15, 17, -9, 49, -99, 36, -25, -73, -6, -22, -73, -66, -60, 7, 12, -35, 19, -28, 58, 7, 22, 41, 92, -177, -21, 29, -28, -144, -57, 20, 4, -67, -21, -46, 69, -61, 83, 64, -74, 39, -10, -118, -52, 13, -26, -42, 47, 3, 23, 7, -17, 78, 40, 91, 138, 11, -38, -137, 29, 47, 46, -10, -65, 3, 45, -4, -81, 60, 1, -95, -27, -73, 13, -56, 2, -82, -62, -2, 20, 46, 131, 94, 120, 76, 20, -17, 51, -8, 74, 11, 123, 10, 13, 9, 92, 27, -24, -47, -45, -128, 88, -48, 43, 10, 12, 49, -49, 59, 12, 65, 33, -7, -16, 47, 87, 9, -7, 91, 77, 124, -181, -74, -6, -61, 15, -38, 0, 7, 19, -16, 45, -14, -11, -89, 2, -22, -4, 47, -23, 88, -19, -16, -23, -28, -70, -77, 61, -83, 66, -33, 53, 78, 106, 71, 95, 137, -89, 0, -109, -95, -42, 99, 59, 6, 50, -66, 52, 34, -43, -57, -78, -123, -56, 105, 35, 92, 80, -26, 45, -72, 10, 44, 65, 46}
, {-64, 16, 12, -26, 50, 70, -49, 65, 92, 34, 15, -19, 109, 127, -65, 61, -36, -23, -26, 65, 96, 42, 50, 35, -11, 35, 13, -30, -66, -29, -33, -44, -89, -9, 12, -74, 28, 46, -10, -16, 29, 7, 95, 76, -99, 40, -79, -14, -29, -68, 6, 59, 51, -1, 68, 14, 55, 0, -18, 51, 46, -23, 79, -18, -28, -3, -22, 92, -41, 33, 7, -70, -10, 2, -9, 32, -1, -42, 62, 37, 34, -63, 16, 59, -93, -17, -53, 9, -39, -72, 24, -48, -68, -62, 19, -138, 59, 0, 69, 14, -28, -34, 46, -36, 5, 60, 6, 63, -62, 39, 59, -22, 8, 83, -65, 71, -47, -95, -40, -90, -1, 62, 41, 21, -27, 39, -64, 38, 75, 35, -9, 45, -51, 37, 100, -27, 177, 63, 111, 68, -58, 60, -6, -2, 0, -71, -60, -3, 16, -52, 34, 5, 44, 24, -79, -40, 13, -86, 43, -46, 52, 2, -38, 0, 26, -70, -56, 83, -48, -25, -22, -6, 93, 2, 116, 106, -29, 19, -62, -40, -30, -75, 39, 56, -53, -97, -13, -90, 11, 101, 27, 137, 57, 68, 89, 18, -105, -19, -18, -66, 59, -72, 14, 89, -6, 106, 75, 62, 10, -8, -20, -31, -3, -33, -32, 77, -61, -64, -64, -55, 34, 56, -40, -31, 165, 46, 34, 50, -32, 32, -77, -8, -36, 4, 77, 59, -78, -32, -134, -77, 63, 32, -80, -5, 2, -38, -62, -22, -46, -149, -15, -85, 22, 24, -42, -86}
, {-74, -6, -18, -34, 81, 44, -77, -27, 97, -7, 5, -52, -34, 95, 6, -111, 68, 112, 39, 46, -30, -66, 13, -5, 17, -21, -7, -95, -56, 39, 22, -11, -65, 43, -28, -101, 21, 1, -37, 10, 54, -42, 23, 55, -12, -34, -48, -71, 22, -9, -36, 37, -69, 5, -51, -149, -74, -68, -27, -28, 64, -3, -6, 77, 135, 78, 26, 72, 5, -5, -60, 37, 1, 27, -72, 64, 71, 79, 25, 96, 65, 10, -5, 79, -75, 46, 8, -16, -68, -3, -56, -72, -11, -31, 7, 25, 15, -92, 73, -21, -16, -14, -12, -37, -30, 47, -1, -2, 16, -43, -9, 13, -15, 93, 69, 81, -38, 9, -60, -85, -1, -15, -91, -17, -120, -30, -34, -103, 59, 0, -17, 30, 0, 51, 72, 78, 194, 78, 61, 123, 66, 8, -39, -51, -107, 3, 3, 17, -63, -162, -5, -173, -160, -105, -104, -110, 117, 30, -13, 29, -7, 27, -34, -33, -1, -101, 75, 138, 65, 17, 45, 145, 62, 7, 6, 65, -116, -39, -28, -22, 31, 17, -114, 14, 32, 16, -24, -8, 24, 115, -32, 49, 225, -8, 84, 33, -29, -7, -2, -33, -1, -77, 27, 50, 96, 67, 24, -38, -5, 19, 42, 38, 65, 59, 28, 49, -3, -41, -11, -19, -52, -11, -87, -1, 21, 48, 94, 59, 58, -103, -66, -9, 62, 14, 10, -4, -60, 38, -103, -74, -13, 74, 45, 79, -8, 22, 66, 53, -95, -39, -47, -80, -40, -83, -18, 18}
, {133, 36, 40, 56, -57, 13, -7, -3, 37, 26, -29, -39, 86, 53, 80, 67, 111, 70, -69, 23, 40, 58, 50, -37, -40, 101, 60, -17, 33, 74, -63, 81, 34, -45, -4, 46, -66, -71, -32, -38, -134, -64, -37, -98, 112, 20, 32, 72, 30, -39, -56, -9, -82, -34, -32, -57, 9, -15, 45, -34, 20, -10, 65, 37, -99, -1, 59, -105, 46, 6, 10, 64, 59, 26, 70, 0, -6, 5, 73, -69, -53, 34, 36, -41, 25, -63, 42, -50, 10, 64, -46, 73, -35, -38, -91, 99, 108, 55, -62, 89, 94, -53, 111, 108, 53, -45, 34, 105, 31, -34, -2, 8, 16, 74, 105, 58, -19, 25, -53, -5, -50, 2, -5, -59, -51, -48, -83, 89, -28, -3, -31, -59, -46, 16, 50, 64, -79, 72, -20, 13, -83, -4, -79, 55, -32, 58, -103, -8, 28, 51, 71, 12, 25, -47, -47, -45, -41, -113, 47, 16, 69, -95, 23, 3, -115, -94, -79, -90, -30, -24, -50, -22, -33, 18, 69, -29, -85, -52, 31, -24, -30, -130, -42, -35, -31, -44, -7, -34, 22, -64, -115, -48, -7, 87, 29, -31, 12, -6, 95, -56, -83, 2, -43, -97, 22, 62, 59, 101, 24, 59, 19, 44, 22, -38, 43, 12, -23, 32, 58, 80, -113, -80, -30, -93, -101, -26, -79, -55, 88, -20, -17, 54, 25, -5, 41, -30, -90, 70, -54, -45, 24, -14, -4, -38, -67, -57, -74, -117, 54, -30, -3, 90, 21, -17, -48, 38}
, {11, 74, -37, -6, 9, -88, -43, -74, -72, 4, 65, -141, 49, -56, -20, 13, 158, 145, 6, -68, -72, -70, 34, -39, 57, -12, 24, -46, -51, -12, 21, 51, 30, 0, -15, 25, -47, 25, 24, 9, 75, 50, 11, 50, 68, -26, 51, 63, 29, -66, 25, -54, 3, 6, -73, -191, -27, -41, -31, 43, 30, 16, 68, 55, 52, 151, 11, -12, -64, 100, -22, 80, -32, 29, 69, -41, 71, 71, 1, 106, 49, 59, 43, 84, 81, 6, 79, 76, 33, -2, -103, 5, -80, 23, -46, 38, 78, 51, 50, 70, 64, -4, 117, 55, 5, 7, 3, -53, -76, -79, 33, -15, 42, 56, 62, 80, -58, 38, -107, 72, -3, 54, -62, -78, -154, -153, -16, -116, 102, 26, 74, 26, 34, 51, -14, -40, -27, 48, 18, -21, 1, -2, -65, -30, -17, 62, -92, 50, -59, -18, 38, -6, -141, -114, -106, -82, 19, -59, 14, 39, -76, -12, -74, 16, -81, -129, 32, 40, 42, 6, 23, 80, -13, -91, 33, 37, -79, -52, 16, -85, -77, -118, -92, -18, 25, 45, 20, 33, -92, -30, -118, -11, 206, 136, 74, 16, -66, -45, -30, -13, -6, -58, -19, 8, -8, 69, 105, 95, -22, -77, 125, -65, 65, 17, -41, 60, -18, 66, 56, 5, -141, 26, -83, -91, -42, -48, -61, -72, 93, 17, 59, 105, 110, -65, -80, -53, -32, 87, -25, -2, -16, 101, 110, 77, 28, 25, 23, 39, -130, -22, -27, 65, -92, 6, 65, -2}
, {-4, 10, -31, 52, -109, -92, 27, 9, 9, 60, -43, 18, -115, 0, 33, -41, -98, -46, -4, 31, -62, 48, 4, -25, -6, 90, -30, 22, 84, -56, 24, 93, 43, 9, 50, 108, 37, -38, -40, 109, -76, -71, -59, -40, 9, -16, -14, -21, 55, -14, -5, -76, 0, 24, -92, 5, 40, -60, -16, -54, 11, -32, -78, -7, 31, 24, -29, -55, -12, 61, 36, 43, 4, -66, 9, -29, -76, -35, -39, -85, 75, -45, 19, 53, 7, 74, 94, 73, 16, 57, -32, -48, 44, 58, 9, 112, -4, -52, 38, 79, 1, 14, 66, -30, -79, -41, 29, 23, 1, 10, -2, 11, -44, -3, -55, -12, -13, 93, 63, 41, 34, -39, 61, -47, 54, 80, 78, -10, 0, -71, -33, -44, -88, 40, -88, 17, -104, 20, -96, -112, 34, -62, -61, 65, -12, 38, 65, 15, 97, 88, 13, 8, 53, -12, 26, -39, 21, 63, 7, -29, -23, 11, 52, 36, -5, 20, -71, -23, 21, -18, 23, -34, -57, -23, -17, -40, -25, -31, -42, 8, 69, -31, 102, -62, 31, -36, -11, 117, -32, -95, 18, -38, -50, 5, -72, -72, 113, 5, -42, 99, 7, 103, -26, -64, -73, 36, -34, -70, 12, -101, -3, -57, -33, -2, -83, 0, 89, 82, -33, -9, 9, -18, 68, 21, -110, -50, -63, -97, 45, -38, 79, 4, -5, -29, -58, -57, 62, 47, 55, -14, -23, -76, 6, 11, 95, 38, 13, 22, 78, 19, -25, 87, 16, 54, 41, 16}
, {85, 23, 43, 49, 11, 26, 58, 2, 13, 43, 29, -11, 108, 70, 85, 104, -116, -56, -77, -76, -30, 61, 98, 103, 35, 76, 51, -2, -51, 8, -16, -60, 48, -37, 76, -17, -40, -42, -73, -25, -131, 37, -68, 25, 87, -4, 43, 73, 34, -47, -86, -23, 7, -30, 0, 55, 11, 42, 125, 32, -83, -13, -37, -82, -144, -34, -79, -77, -17, 63, 17, 1, -55, 56, -22, 66, 7, 14, -50, -63, 6, -24, -35, -138, -4, -64, -23, -24, -16, 63, -18, 17, 32, -43, 20, 7, -39, 17, -11, -66, -30, -80, 28, 55, 32, -29, 24, 57, 34, 70, -79, 85, 60, -98, -64, 17, -88, -12, -42, 15, -15, -43, -52, -65, 73, 94, 46, 25, 0, -112, -92, -65, 33, -35, 50, -58, -30, 90, 26, -12, -56, -69, -33, -100, -72, 42, -5, 39, 50, 128, 59, 111, 200, 99, 105, -16, -7, 2, 2, 6, 83, -18, 10, 57, 47, 58, -33, -105, -142, -46, -72, -159, -44, 52, -36, 7, 33, 63, -79, 87, -110, -45, 24, -20, 51, -22, -12, -64, 41, -103, 2, 49, -170, 103, 21, 15, 110, 90, 14, 9, 43, 62, -64, -9, 40, -83, -24, -5, 26, 24, -68, -46, -21, -4, 4, 1, 21, 56, 12, 7, 101, -43, 59, 31, -35, -78, 32, -56, -83, 115, 14, -85, -42, 61, 81, 31, -4, -22, -91, -29, -14, -57, 0, -5, -44, -40, -52, -24, 118, -2, 28, 72, 23, 53, -30, 3}
, {-29, 24, -42, 2, -24, -45, -42, -35, 70, -21, 37, -62, -208, -62, -123, -76, 9, 51, 17, 42, 17, -61, -113, -3, -68, -82, -20, 32, -4, -67, 19, 65, -38, -31, 47, 7, 12, 22, 55, 28, 110, 14, 91, 59, -100, 70, -88, -62, 75, 49, 91, -17, 36, 42, -2, 22, 11, -67, 12, -114, 24, -27, -35, 24, -19, -19, -34, -8, 20, 66, 21, -113, -10, -112, 33, 30, -37, 29, 28, -35, 95, -11, -6, 32, -47, 112, 2, -3, 0, 24, -94, -55, 119, 88, 110, 12, 6, 30, 45, 50, 40, -26, 44, 26, -59, -65, -81, -95, 16, -54, -73, 37, 10, -50, 39, -38, 7, -46, 110, 37, -38, -65, 57, -30, 3, 42, 11, -64, 71, 97, 118, 62, -68, 19, -69, -115, 32, 18, 1, 10, 80, 2, 95, -11, 76, 0, 67, -24, -96, -101, -1, 13, -117, 27, 87, 42, 71, 50, 2, 96, -88, 0, 74, 80, 24, 49, 28, 48, 148, 126, 15, 46, -92, -76, -52, -24, 3, -88, -22, 67, 135, 30, 100, 50, 28, 31, 11, 86, -22, 15, -19, 11, 85, -85, -50, -44, -83, 15, -42, 21, 11, -29, -16, 64, 38, -60, -19, -69, -62, -49, 74, -56, 96, 76, -79, 16, 3, -61, -48, -25, 39, 19, 62, -7, 54, 74, -4, 53, 96, -85, -11, 64, -28, -8, -5, 16, 89, 69, 125, 34, 7, 64, -48, 48, 106, 6, -30, -13, -27, 66, -115, 18, 20, -25, -29, 99}
, {-80, -43, -70, 53, 59, 40, 14, 2, 92, 48, 15, 56, -205, 11, -116, -146, -52, 7, -4, 54, 48, -6, 5, -68, -107, -119, -50, -88, -46, -10, 57, 31, 24, -35, 4, -67, 3, 35, 18, 96, 118, 42, 49, 21, -117, 0, -87, -92, 31, 82, 93, -26, 25, 6, 7, -12, -52, 20, -45, -80, -39, 9, 6, 31, 125, 91, 45, 133, -55, 34, -26, -25, -61, -9, -6, -84, 40, 53, -52, -4, 76, 38, 30, -3, -94, 19, -30, -73, 54, 14, -39, -59, 108, -2, 86, -29, -68, 8, -54, -7, 7, -68, -82, -53, -7, -64, -66, -1, 54, -30, 15, -63, -43, -43, -17, -29, 91, -20, -12, -4, -32, -45, -27, 55, -64, 93, 4, -85, 62, 19, 86, -41, -76, 8, -41, -14, 31, 7, -21, 36, 11, 16, 112, 19, -45, 14, -1, 0, -131, -121, -51, -128, -180, 2, -3, -33, 88, 68, 62, 7, -14, -20, -5, -52, 63, 5, 52, 130, 129, 24, 95, 20, 10, 2, 36, -26, -17, 54, 25, 16, 16, 108, -5, 92, -54, 67, 69, -15, 17, 152, 29, 1, 45, -52, -8, -58, -25, 10, -79, 38, -1, -17, 6, 50, -11, 46, 87, 11, 50, -73, 6, 67, 77, 54, 3, 18, -12, -64, -43, -57, -57, 64, 17, 36, 76, 106, 0, 20, -57, -84, -30, -103, 0, 13, -49, 25, 100, -55, 32, 84, 40, -36, 45, 46, 13, 63, -24, 24, 34, -57, -104, -18, 88, 11, -35, 67}
, {-16, -12, 23, -31, 9, -51, -47, 12, -13, 2, -75, 12, -130, 0, -168, -141, -31, 78, 94, 122, -6, -19, 1, 2, 26, -17, -100, -30, -84, -15, -28, 24, 4, -48, 16, -73, 83, 86, -14, 54, 53, 37, 7, 100, -99, 9, -8, -23, -68, -21, -50, 55, 40, 0, -25, -45, 34, -72, -1, 1, 61, 16, 27, 43, 167, 110, 67, 129, -22, 35, -7, -59, -26, -42, -26, -76, 77, 93, 19, 58, 30, 95, 60, 112, -15, 92, 16, 6, -12, -118, -34, -63, -51, 76, 41, 17, 39, -53, 94, -38, 28, -18, 4, -2, -34, 15, -51, -24, -36, -44, 15, -54, 35, 47, -69, -32, 33, -93, 52, -1, -3, -8, -70, -11, -97, -83, -121, -143, 78, 83, 10, 63, 51, 6, -20, 88, 160, 47, 43, 48, 115, -68, -8, -17, -21, 66, -46, 11, -21, -147, -64, -86, -144, -30, -158, 13, 116, 81, 18, 26, -91, 14, 51, 23, 6, 15, -40, 130, 3, 80, -40, 92, 22, 8, 56, -8, 4, -16, 17, -36, -40, 61, -78, 18, -41, 19, -31, 3, 57, 136, 117, 133, 222, -39, 64, 21, -156, -57, -10, -59, 70, -12, -58, -8, -14, -42, 105, -75, 1, -92, 61, 23, 68, 112, -21, 27, -105, -5, 33, -76, 9, 55, -19, -47, 61, 7, 137, 79, 72, -74, -41, -38, 59, -21, -55, 9, 48, -14, -66, 45, 46, 83, -36, 42, -46, 51, 1, 44, -49, 1, -45, 18, -7, -37, 37, 15}
, {64, 62, 59, -31, -77, -16, -36, -99, -88, -50, -29, -5, 13, 28, 19, -19, 36, 19, 43, -66, -101, -78, 0, -15, 9, 16, -61, -24, 83, 2, 11, 33, 21, -43, 106, 68, 81, 3, -2, 0, 26, 47, -143, -16, 66, 14, 51, 107, 22, -51, 66, -11, -114, 5, -93, -55, -69, -45, 21, -51, -44, 79, -18, -11, 68, 32, -33, -11, 32, 106, 60, 146, 35, 41, 0, 39, 37, 80, 8, 17, 27, 48, 13, -30, -14, -36, 76, 11, 53, -23, 28, 48, -2, -56, -97, 105, 63, 0, -40, 36, 104, 107, 72, 47, 15, -22, 15, -71, -68, -13, -58, -43, -42, 104, 90, 61, -39, 64, 32, 116, 80, 23, 57, 12, -80, -38, -20, -9, -59, 29, -17, -74, 26, 48, -80, -59, -126, -43, -4, -88, -108, -34, 31, -9, -21, 22, -66, 39, 36, 17, -1, -12, -36, -15, 40, -61, 52, 50, -3, 6, -57, -43, 1, -71, -85, 35, 37, -40, 3, 44, 14, 80, -97, -51, 26, -77, -6, 8, 32, -12, -64, -61, -48, -25, -20, -34, 71, 35, 0, -81, -111, -92, 32, -14, -116, -17, 9, 74, 92, 75, 11, -4, -63, -34, 41, -48, 68, 10, -29, 13, 45, 11, 43, -12, 0, -62, 11, 138, 38, 97, -16, -65, -54, -60, -71, -124, -66, -73, 29, 50, 120, 54, 41, 5, 19, -52, 38, 45, 16, -28, -52, -59, 26, 22, -59, -76, 3, -13, 41, 47, 27, 30, -2, -16, -29, -13}
, {0, 29, -92, -65, 7, -35, 27, 18, 96, 40, 8, 76, 48, 64, -33, -34, -107, 20, 41, 45, 53, 16, 46, 81, -44, -56, -41, -59, -70, -65, 14, -106, -19, 34, -29, -15, 11, 68, 70, -20, 11, 69, 116, 38, -91, -76, -21, -72, -15, -74, -18, 7, 27, -24, 131, 0, 74, 72, -57, -26, 34, -56, -64, -30, 64, -6, 78, 28, -82, 38, 64, -36, 50, 35, 30, -18, -11, 22, 28, -16, -86, -84, -70, 49, -103, -23, -72, -77, -54, 29, 25, 20, -56, -29, 62, -111, 38, -4, -66, -18, -5, -14, -13, -129, 63, 31, -30, 50, 12, 87, 5, 77, -7, 32, -60, 76, -69, -34, -95, -73, -46, -32, 55, -35, 81, 18, 37, -40, 36, -22, 8, 14, 20, 27, 72, 28, 122, -56, 0, 84, 45, 23, -11, -74, -112, 11, 66, 44, -24, -68, 25, -64, 0, -26, 16, -20, 35, 3, 16, -100, 45, 35, -32, 5, 27, 73, 100, -9, -36, -17, -10, 18, 165, 94, 39, -24, -43, 25, 56, -10, -78, -23, -1, -45, -52, -77, -22, -33, 68, 66, 133, 162, -1, 37, 95, 61, -61, 22, -68, -19, -17, -77, 35, 55, -47, 25, 0, 45, -41, 65, -91, 62, 15, -43, 104, 42, -11, -32, -39, -36, 110, 39, 46, 32, 75, -8, 111, 118, -60, 2, 25, -56, -57, 110, 65, -75, 40, -15, -52, 6, -14, -39, -81, -15, 2, -28, -20, 42, -40, -28, 6, -92, 35, 15, -33, -49}
}
;

#undef INPUT_SAMPLES
#undef FC_UNITS